digraph Tree {
node [shape=box, style="filled, rounded", color="black", fontname="helvetica"] ;
edge [fontname="helvetica"] ;
0 [label=<OverallQual &le; 7.5<br/>squared_error = 5964550379.77<br/>samples = 1168<br/>value = 181441.542>, fillcolor="#fae5d6"] ;
1 [label=<OverallQual &le; 6.5<br/>squared_error = 2363399388.322<br/>samples = 984<br/>value = 158879.154>, fillcolor="#fae9dc"] ;
0 -> 1 [labeldistance=2.5, labelangle=45, headlabel="True"] ;
2 [label=<GrLivArea &le; 1378.5<br/>squared_error = 1447929508.083<br/>samples = 726<br/>value = 142077.643>, fillcolor="#fbece1"] ;
1 -> 2 ;
3 [label=<TotalBsmtSF &le; 969.5<br/>squared_error = 817629555.813<br/>samples = 438<br/>value = 125810.158>, fillcolor="#fcefe6"] ;
2 -> 3 ;
4 [label=<OverallQual &le; 4.5<br/>squared_error = 602014648.223<br/>samples = 267<br/>value = 113133.071>, fillcolor="#fcf1e9"] ;
3 -> 4 ;
5 [label=<GrLivArea &le; 806.0<br/>squared_error = 543222359.765<br/>samples = 76<br/>value = 94338.158>, fillcolor="#fdf4ee"] ;
4 -> 5 ;
6 [label=<YearBuilt &le; 1924.0<br/>squared_error = 421853125.0<br/>samples = 16<br/>value = 71725.0>, fillcolor="#fef8f5"] ;
5 -> 6 ;
7 [label=<1stFlrSF &le; 579.0<br/>squared_error = 117668888.889<br/>samples = 3<br/>value = 49966.667>, fillcolor="#fefcfb"] ;
6 -> 7 ;
8 [label=<squared_error = 0.0<br/>samples = 1<br/>value = 60000.0>, fillcolor="#fefbf8"] ;
7 -> 8 ;
9 [label=<GrLivArea &le; 758.0<br/>squared_error = 101002500.0<br/>samples = 2<br/>value = 44950.0>, fillcolor="#fffdfc"] ;
7 -> 9 ;
10 [label=<squared_error = 0.0<br/>samples = 1<br/>value = 34900.0>, fillcolor="#ffffff"] ;
9 -> 10 ;
11 [label=<squared_error = 0.0<br/>samples = 1<br/>value = 55000.0>, fillcolor="#fefbf9"] ;
9 -> 11 ;
12 [label=<TotalBsmtSF &le; 345.0<br/>squared_error = 357585562.13<br/>samples = 13<br/>value = 76746.154>, fillcolor="#fdf8f3"] ;
6 -> 12 ;
13 [label=<YearBuilt &le; 1947.5<br/>squared_error = 187086666.667<br/>samples = 3<br/>value = 54600.0>, fillcolor="#fefcfa"] ;
12 -> 13 ;
14 [label=<1stFlrSF &le; 531.5<br/>squared_error = 40322500.0<br/>samples = 2<br/>value = 45650.0>, fillcolor="#fffdfc"] ;
13 -> 14 ;
15 [label=<squared_error = 0.0<br/>samples = 1<br/>value = 39300.0>, fillcolor="#fffefe"] ;
14 -> 15 ;
16 [label=<squared_error = 0.0<br/>samples = 1<br/>value = 52000.0>, fillcolor="#fefcfa"] ;
14 -> 16 ;
17 [label=<squared_error = 0.0<br/>samples = 1<br/>value = 72500.0>, fillcolor="#fef8f5"] ;
13 -> 17 ;
18 [label=<TotalBsmtSF &le; 767.5<br/>squared_error = 217458900.0<br/>samples = 10<br/>value = 83390.0>, fillcolor="#fdf6f1"] ;
12 -> 18 ;
19 [label=<TotalBsmtSF &le; 682.5<br/>squared_error = 207560246.914<br/>samples = 9<br/>value = 81544.444>, fillcolor="#fdf7f2"] ;
18 -> 19 ;
20 [label=<TotalBsmtSF &le; 651.0<br/>squared_error = 126915510.204<br/>samples = 7<br/>value = 85914.286>, fillcolor="#fdf6f1"] ;
19 -> 20 ;
21 [label=<GrLivArea &le; 727.5<br/>squared_error = 5416666.667<br/>samples = 6<br/>value = 81400.0>, fillcolor="#fdf7f2"] ;
20 -> 21 ;
22 [label=<YearBuilt &le; 1971.0<br/>squared_error = 5171875.0<br/>samples = 4<br/>value = 82375.0>, fillcolor="#fdf7f2"] ;
21 -> 22 ;
23 [label=<GrLivArea &le; 669.0<br/>squared_error = 6055555.556<br/>samples = 3<br/>value = 82833.333>, fillcolor="#fdf6f2"] ;
22 -> 23 ;
24 [label=<squared_error = 9000000.0<br/>samples = 2<br/>value = 83000.0>, fillcolor="#fdf6f2"] ;
23 -> 24 ;
25 [label=<squared_error = 0.0<br/>samples = 1<br/>value = 82500.0>, fillcolor="#fdf7f2"] ;
23 -> 25 ;
26 [label=<squared_error = 0.0<br/>samples = 1<br/>value = 81000.0>, fillcolor="#fdf7f2"] ;
22 -> 26 ;
27 [label=<OverallQual &le; 3.5<br/>squared_error = 202500.0<br/>samples = 2<br/>value = 79450.0>, fillcolor="#fdf7f3"] ;
21 -> 27 ;
28 [label=<squared_error = 0.0<br/>samples = 1<br/>value = 79000.0>, fillcolor="#fdf7f3"] ;
27 -> 28 ;
29 [label=<squared_error = 0.0<br/>samples = 1<br/>value = 79900.0>, fillcolor="#fdf7f2"] ;
27 -> 29 ;
30 [label=<squared_error = 0.0<br/>samples = 1<br/>value = 113000.0>, fillcolor="#fcf1e9"] ;
20 -> 30 ;
31 [label=<YearBuilt &le; 1943.0<br/>squared_error = 189062500.0<br/>samples = 2<br/>value = 66250.0>, fillcolor="#fef9f6"] ;
19 -> 31 ;
32 [label=<squared_error = 0.0<br/>samples = 1<br/>value = 52500.0>, fillcolor="#fefcfa"] ;
31 -> 32 ;
33 [label=<squared_error = 0.0<br/>samples = 1<br/>value = 80000.0>, fillcolor="#fdf7f2"] ;
31 -> 33 ;
34 [label=<squared_error = 0.0<br/>samples = 1<br/>value = 100000.0>, fillcolor="#fdf3ed"] ;
18 -> 34 ;
35 [label=<1stFlrSF &le; 675.5<br/>squared_error = 402863163.889<br/>samples = 60<br/>value = 100368.333>, fillcolor="#fdf3ed"] ;
5 -> 35 ;
36 [label=<YearBuilt &le; 1935.5<br/>squared_error = 331011428.571<br/>samples = 7<br/>value = 73700.0>, fillcolor="#fef8f4"] ;
35 -> 36 ;
37 [label=<FullBath &le; 1.5<br/>squared_error = 73102500.0<br/>samples = 2<br/>value = 46450.0>, fillcolor="#fffdfc"] ;
36 -> 37 ;
38 [label=<squared_error = 0.0<br/>samples = 1<br/>value = 37900.0>, fillcolor="#fffefe"] ;
37 -> 38 ;
39 [label=<squared_error = 0.0<br/>samples = 1<br/>value = 55000.0>, fillcolor="#fefbf9"] ;
37 -> 39 ;
40 [label=<1stFlrSF &le; 609.0<br/>squared_error = 18340000.0<br/>samples = 5<br/>value = 84600.0>, fillcolor="#fdf6f1"] ;
36 -> 40 ;
41 [label=<GrLivArea &le; 1040.0<br/>squared_error = 9500000.0<br/>samples = 3<br/>value = 87500.0>, fillcolor="#fdf6f0"] ;
40 -> 41 ;
42 [label=<squared_error = 0.0<br/>samples = 1<br/>value = 91000.0>, fillcolor="#fdf5ef"] ;
41 -> 42 ;
43 [label=<YearBuilt &le; 1971.5<br/>squared_error = 5062500.0<br/>samples = 2<br/>value = 85750.0>, fillcolor="#fdf6f1"] ;
41 -> 43 ;
44 [label=<squared_error = 0.0<br/>samples = 1<br/>value = 88000.0>, fillcolor="#fdf6f0"] ;
43 -> 44 ;
45 [label=<squared_error = 0.0<br/>samples = 1<br/>value = 83500.0>, fillcolor="#fdf6f1"] ;
43 -> 45 ;
46 [label=<GrLivArea &le; 918.0<br/>squared_error = 62500.0<br/>samples = 2<br/>value = 80250.0>, fillcolor="#fdf7f2"] ;
40 -> 46 ;
47 [label=<squared_error = 0.0<br/>samples = 1<br/>value = 80500.0>, fillcolor="#fdf7f2"] ;
46 -> 47 ;
48 [label=<squared_error = 0.0<br/>samples = 1<br/>value = 80000.0>, fillcolor="#fdf7f2"] ;
46 -> 48 ;
49 [label=<OverallQual &le; 3.5<br/>squared_error = 306014816.661<br/>samples = 53<br/>value = 103890.566>, fillcolor="#fcf3ec"] ;
35 -> 49 ;
50 [label=<1stFlrSF &le; 779.0<br/>squared_error = 381464375.0<br/>samples = 8<br/>value = 85425.0>, fillcolor="#fdf6f1"] ;
49 -> 50 ;
51 [label=<1stFlrSF &le; 686.5<br/>squared_error = 56250000.0<br/>samples = 2<br/>value = 112500.0>, fillcolor="#fcf1e9"] ;
50 -> 51 ;
52 [label=<squared_error = 0.0<br/>samples = 1<br/>value = 120000.0>, fillcolor="#fcf0e7"] ;
51 -> 52 ;
53 [label=<squared_error = 0.0<br/>samples = 1<br/>value = 105000.0>, fillcolor="#fcf3eb"] ;
51 -> 53 ;
54 [label=<YearBuilt &le; 1931.0<br/>squared_error = 164066666.667<br/>samples = 6<br/>value = 76400.0>, fillcolor="#fdf8f3"] ;
50 -> 54 ;
55 [label=<1stFlrSF &le; 884.0<br/>squared_error = 1562500.0<br/>samples = 2<br/>value = 59750.0>, fillcolor="#fefbf8"] ;
54 -> 55 ;
56 [label=<squared_error = 0.0<br/>samples = 1<br/>value = 58500.0>, fillcolor="#fefbf8"] ;
55 -> 56 ;
57 [label=<squared_error = 0.0<br/>samples = 1<br/>value = 61000.0>, fillcolor="#fefaf8"] ;
55 -> 57 ;
58 [label=<FullBath &le; 1.5<br/>squared_error = 37401875.0<br/>samples = 4<br/>value = 84725.0>, fillcolor="#fdf6f1"] ;
54 -> 58 ;
59 [label=<GarageCars &le; 1.0<br/>squared_error = 7562500.0<br/>samples = 2<br/>value = 79250.0>, fillcolor="#fdf7f3"] ;
58 -> 59 ;
60 [label=<squared_error = 0.0<br/>samples = 1<br/>value = 76500.0>, fillcolor="#fdf8f3"] ;
59 -> 60 ;
61 [label=<squared_error = 0.0<br/>samples = 1<br/>value = 82000.0>, fillcolor="#fdf7f2"] ;
59 -> 61 ;
62 [label=<YearBuilt &le; 1949.5<br/>squared_error = 7290000.0<br/>samples = 2<br/>value = 90200.0>, fillcolor="#fdf5f0"] ;
58 -> 62 ;
63 [label=<squared_error = 0.0<br/>samples = 1<br/>value = 87500.0>, fillcolor="#fdf6f0"] ;
62 -> 63 ;
64 [label=<squared_error = 0.0<br/>samples = 1<br/>value = 92900.0>, fillcolor="#fdf5ef"] ;
62 -> 64 ;
65 [label=<TotalBsmtSF &le; 553.0<br/>squared_error = 221206844.444<br/>samples = 45<br/>value = 107173.333>, fillcolor="#fcf2eb"] ;
49 -> 65 ;
66 [label=<YearBuilt &le; 1952.5<br/>squared_error = 105689876.543<br/>samples = 9<br/>value = 94738.889>, fillcolor="#fdf4ee"] ;
65 -> 66 ;
67 [label=<GrLivArea &le; 954.5<br/>squared_error = 102259600.0<br/>samples = 5<br/>value = 99930.0>, fillcolor="#fdf3ed"] ;
66 -> 67 ;
68 [label=<squared_error = 0.0<br/>samples = 1<br/>value = 85500.0>, fillcolor="#fdf6f1"] ;
67 -> 68 ;
69 [label=<TotRmsAbvGrd &le; 5.5<br/>squared_error = 62754218.75<br/>samples = 4<br/>value = 103537.5>, fillcolor="#fcf3ec"] ;
67 -> 69 ;
70 [label=<FullBath &le; 1.5<br/>squared_error = 902500.0<br/>samples = 2<br/>value = 108950.0>, fillcolor="#fcf2ea"] ;
69 -> 70 ;
71 [label=<squared_error = 0.0<br/>samples = 1<br/>value = 109900.0>, fillcolor="#fcf2ea"] ;
70 -> 71 ;
72 [label=<squared_error = 0.0<br/>samples = 1<br/>value = 108000.0>, fillcolor="#fcf2eb"] ;
70 -> 72 ;
73 [label=<TotRmsAbvGrd &le; 6.5<br/>squared_error = 66015625.0<br/>samples = 2<br/>value = 98125.0>, fillcolor="#fdf4ed"] ;
69 -> 73 ;
74 [label=<squared_error = 0.0<br/>samples = 1<br/>value = 90000.0>, fillcolor="#fdf5f0"] ;
73 -> 74 ;
75 [label=<squared_error = 0.0<br/>samples = 1<br/>value = 106250.0>, fillcolor="#fcf2eb"] ;
73 -> 75 ;
76 [label=<GrLivArea &le; 1224.0<br/>squared_error = 34187500.0<br/>samples = 4<br/>value = 88250.0>, fillcolor="#fdf6f0"] ;
66 -> 76 ;
77 [label=<YearBuilt &le; 1956.0<br/>squared_error = 1000000.0<br/>samples = 2<br/>value = 83000.0>, fillcolor="#fdf6f2"] ;
76 -> 77 ;
78 [label=<squared_error = 0.0<br/>samples = 1<br/>value = 82000.0>, fillcolor="#fdf7f2"] ;
77 -> 78 ;
79 [label=<squared_error = 0.0<br/>samples = 1<br/>value = 84000.0>, fillcolor="#fdf6f1"] ;
77 -> 79 ;
80 [label=<GrLivArea &le; 1320.0<br/>squared_error = 12250000.0<br/>samples = 2<br/>value = 93500.0>, fillcolor="#fdf5ef"] ;
76 -> 80 ;
81 [label=<squared_error = 0.0<br/>samples = 1<br/>value = 90000.0>, fillcolor="#fdf5f0"] ;
80 -> 81 ;
82 [label=<squared_error = 0.0<br/>samples = 1<br/>value = 97000.0>, fillcolor="#fdf4ee"] ;
80 -> 82 ;
83 [label=<FullBath &le; 0.5<br/>squared_error = 201768771.219<br/>samples = 36<br/>value = 110281.944>, fillcolor="#fcf2ea"] ;
65 -> 83 ;
84 [label=<squared_error = 0.0<br/>samples = 1<br/>value = 145000.0>, fillcolor="#fbebe0"] ;
83 -> 84 ;
85 [label=<1stFlrSF &le; 764.5<br/>squared_error = 172111257.143<br/>samples = 35<br/>value = 109290.0>, fillcolor="#fcf2ea"] ;
83 -> 85 ;
86 [label=<1stFlrSF &le; 730.5<br/>squared_error = 16166666.667<br/>samples = 3<br/>value = 129500.0>, fillcolor="#fceee5"] ;
85 -> 86 ;
87 [label=<squared_error = 0.0<br/>samples = 1<br/>value = 135000.0>, fillcolor="#fbede3"] ;
86 -> 87 ;
88 [label=<YearBuilt &le; 1923.0<br/>squared_error = 1562500.0<br/>samples = 2<br/>value = 126750.0>, fillcolor="#fcefe5"] ;
86 -> 88 ;
89 [label=<squared_error = 0.0<br/>samples = 1<br/>value = 125500.0>, fillcolor="#fcefe6"] ;
88 -> 89 ;
90 [label=<squared_error = 0.0<br/>samples = 1<br/>value = 128000.0>, fillcolor="#fceee5"] ;
88 -> 90 ;
91 [label=<TotRmsAbvGrd &le; 4.5<br/>squared_error = 144849587.402<br/>samples = 32<br/>value = 107395.312>, fillcolor="#fcf2eb"] ;
85 -> 91 ;
92 [label=<YearBuilt &le; 1976.5<br/>squared_error = 206750000.0<br/>samples = 8<br/>value = 99250.0>, fillcolor="#fdf4ed"] ;
91 -> 92 ;
93 [label=<YearBuilt &le; 1962.0<br/>squared_error = 86887755.102<br/>samples = 7<br/>value = 94928.571>, fillcolor="#fdf4ee"] ;
92 -> 93 ;
94 [label=<YearBuilt &le; 1939.5<br/>squared_error = 63600000.0<br/>samples = 5<br/>value = 91500.0>, fillcolor="#fdf5ef"] ;
93 -> 94 ;
95 [label=<squared_error = 0.0<br/>samples = 2<br/>value = 100000.0>, fillcolor="#fdf3ed"] ;
94 -> 95 ;
96 [label=<YearBuilt &le; 1951.5<br/>squared_error = 25722222.222<br/>samples = 3<br/>value = 85833.333>, fillcolor="#fdf6f1"] ;
94 -> 96 ;
97 [label=<YearBuilt &le; 1945.0<br/>squared_error = 62500.0<br/>samples = 2<br/>value = 82250.0>, fillcolor="#fdf7f2"] ;
96 -> 97 ;
98 [label=<squared_error = 0.0<br/>samples = 1<br/>value = 82500.0>, fillcolor="#fdf7f2"] ;
97 -> 98 ;
99 [label=<squared_error = 0.0<br/>samples = 1<br/>value = 82000.0>, fillcolor="#fdf7f2"] ;
97 -> 99 ;
100 [label=<squared_error = 0.0<br/>samples = 1<br/>value = 93000.0>, fillcolor="#fdf5ef"] ;
96 -> 100 ;
101 [label=<TotalBsmtSF &le; 861.0<br/>squared_error = 42250000.0<br/>samples = 2<br/>value = 103500.0>, fillcolor="#fcf3ec"] ;
93 -> 101 ;
102 [label=<squared_error = 0.0<br/>samples = 1<br/>value = 110000.0>, fillcolor="#fcf2ea"] ;
101 -> 102 ;
103 [label=<squared_error = 0.0<br/>samples = 1<br/>value = 97000.0>, fillcolor="#fdf4ee"] ;
101 -> 103 ;
104 [label=<squared_error = 0.0<br/>samples = 1<br/>value = 129500.0>, fillcolor="#fceee5"] ;
92 -> 104 ;
105 [label=<GrLivArea &le; 861.0<br/>squared_error = 94728953.993<br/>samples = 24<br/>value = 110110.417>, fillcolor="#fcf2ea"] ;
91 -> 105 ;
106 [label=<squared_error = 0.0<br/>samples = 1<br/>value = 88000.0>, fillcolor="#fdf6f0"] ;
105 -> 106 ;
107 [label=<YearBuilt &le; 1967.5<br/>squared_error = 76668223.062<br/>samples = 23<br/>value = 111071.739>, fillcolor="#fcf1ea"] ;
105 -> 107 ;
108 [label=<YearBuilt &le; 1960.5<br/>squared_error = 64714740.484<br/>samples = 17<br/>value = 108373.529>, fillcolor="#fcf2eb"] ;
107 -> 108 ;
109 [label=<GarageCars &le; 0.5<br/>squared_error = 56434375.0<br/>samples = 16<br/>value = 109225.0>, fillcolor="#fcf2ea"] ;
108 -> 109 ;
110 [label=<squared_error = 0.0<br/>samples = 1<br/>value = 96500.0>, fillcolor="#fdf4ee"] ;
109 -> 110 ;
111 [label=<1stFlrSF &le; 803.0<br/>squared_error = 48681955.556<br/>samples = 15<br/>value = 110073.333>, fillcolor="#fcf2ea"] ;
109 -> 111 ;
112 [label=<TotalBsmtSF &le; 653.5<br/>squared_error = 32180000.0<br/>samples = 3<br/>value = 119700.0>, fillcolor="#fcf0e7"] ;
111 -> 112 ;
113 [label=<squared_error = 0.0<br/>samples = 1<br/>value = 112000.0>, fillcolor="#fcf1ea"] ;
112 -> 113 ;
114 [label=<TotalBsmtSF &le; 771.5<br/>squared_error = 3802500.0<br/>samples = 2<br/>value = 123550.0>, fillcolor="#fcefe6"] ;
112 -> 114 ;
115 [label=<squared_error = 0.0<br/>samples = 1<br/>value = 121600.0>, fillcolor="#fcf0e7"] ;
114 -> 115 ;
116 [label=<squared_error = 0.0<br/>samples = 1<br/>value = 125500.0>, fillcolor="#fcefe6"] ;
114 -> 116 ;
117 [label=<YearBuilt &le; 1952.5<br/>squared_error = 23847222.222<br/>samples = 12<br/>value = 107666.667>, fillcolor="#fcf2eb"] ;
111 -> 117 ;
118 [label=<1stFlrSF &le; 1003.5<br/>squared_error = 8187500.0<br/>samples = 8<br/>value = 105000.0>, fillcolor="#fcf3eb"] ;
117 -> 118 ;
119 [label=<GarageCars &le; 1.5<br/>squared_error = 3472222.222<br/>samples = 6<br/>value = 106333.333>, fillcolor="#fcf2eb"] ;
118 -> 119 ;
120 [label=<GrLivArea &le; 1355.0<br/>squared_error = 1500000.0<br/>samples = 5<br/>value = 107000.0>, fillcolor="#fcf2eb"] ;
119 -> 120 ;
121 [label=<YearBuilt &le; 1922.5<br/>squared_error = 625000.0<br/>samples = 4<br/>value = 107500.0>, fillcolor="#fcf2eb"] ;
120 -> 121 ;
122 [label=<TotalBsmtSF &le; 798.5<br/>squared_error = 62500.0<br/>samples = 2<br/>value = 108250.0>, fillcolor="#fcf2eb"] ;
121 -> 122 ;
123 [label=<squared_error = 0.0<br/>samples = 1<br/>value = 108000.0>, fillcolor="#fcf2eb"] ;
122 -> 123 ;
124 [label=<squared_error = 0.0<br/>samples = 1<br/>value = 108500.0>, fillcolor="#fcf2ea"] ;
122 -> 124 ;
125 [label=<1stFlrSF &le; 880.5<br/>squared_error = 62500.0<br/>samples = 2<br/>value = 106750.0>, fillcolor="#fcf2eb"] ;
121 -> 125 ;
126 [label=<squared_error = 0.0<br/>samples = 1<br/>value = 107000.0>, fillcolor="#fcf2eb"] ;
125 -> 126 ;
127 [label=<squared_error = 0.0<br/>samples = 1<br/>value = 106500.0>, fillcolor="#fcf2eb"] ;
125 -> 127 ;
128 [label=<squared_error = 0.0<br/>samples = 1<br/>value = 105000.0>, fillcolor="#fcf3eb"] ;
120 -> 128 ;
129 [label=<squared_error = 0.0<br/>samples = 1<br/>value = 103000.0>, fillcolor="#fdf3ec"] ;
119 -> 129 ;
130 [label=<1stFlrSF &le; 1133.5<br/>squared_error = 1000000.0<br/>samples = 2<br/>value = 101000.0>, fillcolor="#fdf3ed"] ;
118 -> 130 ;
131 [label=<squared_error = 0.0<br/>samples = 1<br/>value = 100000.0>, fillcolor="#fdf3ed"] ;
130 -> 131 ;
132 [label=<squared_error = 0.0<br/>samples = 1<br/>value = 102000.0>, fillcolor="#fdf3ec"] ;
130 -> 132 ;
133 [label=<TotalBsmtSF &le; 921.0<br/>squared_error = 12500000.0<br/>samples = 4<br/>value = 113000.0>, fillcolor="#fcf1e9"] ;
117 -> 133 ;
134 [label=<1stFlrSF &le; 921.0<br/>squared_error = 666666.667<br/>samples = 3<br/>value = 111000.0>, fillcolor="#fcf1ea"] ;
133 -> 134 ;
135 [label=<squared_error = 0.0<br/>samples = 1<br/>value = 110000.0>, fillcolor="#fcf2ea"] ;
134 -> 135 ;
136 [label=<TotalBsmtSF &le; 768.0<br/>squared_error = 250000.0<br/>samples = 2<br/>value = 111500.0>, fillcolor="#fcf1ea"] ;
134 -> 136 ;
137 [label=<squared_error = 0.0<br/>samples = 1<br/>value = 112000.0>, fillcolor="#fcf1ea"] ;
136 -> 137 ;
138 [label=<squared_error = 0.0<br/>samples = 1<br/>value = 111000.0>, fillcolor="#fcf1ea"] ;
136 -> 138 ;
139 [label=<squared_error = 0.0<br/>samples = 1<br/>value = 119000.0>, fillcolor="#fcf0e8"] ;
133 -> 139 ;
140 [label=<squared_error = 0.0<br/>samples = 1<br/>value = 94750.0>, fillcolor="#fdf4ee"] ;
108 -> 140 ;
141 [label=<TotalBsmtSF &le; 912.0<br/>squared_error = 31463888.889<br/>samples = 6<br/>value = 118716.667>, fillcolor="#fcf0e8"] ;
107 -> 141 ;
142 [label=<YearBuilt &le; 1971.5<br/>squared_error = 12377400.0<br/>samples = 5<br/>value = 116660.0>, fillcolor="#fcf0e8"] ;
141 -> 142 ;
143 [label=<GarageCars &le; 1.5<br/>squared_error = 6325468.75<br/>samples = 4<br/>value = 118012.5>, fillcolor="#fcf0e8"] ;
142 -> 143 ;
144 [label=<GarageCars &le; 0.5<br/>squared_error = 275625.0<br/>samples = 2<br/>value = 115525.0>, fillcolor="#fcf1e9"] ;
143 -> 144 ;
145 [label=<squared_error = 0.0<br/>samples = 1<br/>value = 115000.0>, fillcolor="#fcf1e9"] ;
144 -> 145 ;
146 [label=<squared_error = 0.0<br/>samples = 1<br/>value = 116050.0>, fillcolor="#fcf1e8"] ;
144 -> 146 ;
147 [label=<squared_error = 0.0<br/>samples = 2<br/>value = 120500.0>, fillcolor="#fcf0e7"] ;
143 -> 147 ;
148 [label=<squared_error = 0.0<br/>samples = 1<br/>value = 111250.0>, fillcolor="#fcf1ea"] ;
142 -> 148 ;
149 [label=<squared_error = 0.0<br/>samples = 1<br/>value = 129000.0>, fillcolor="#fceee5"] ;
141 -> 149 ;
150 [label=<GarageCars &le; 1.5<br/>squared_error = 428919199.256<br/>samples = 191<br/>value = 120611.675>, fillcolor="#fcf0e7"] ;
4 -> 150 ;
151 [label=<YearBuilt &le; 1935.5<br/>squared_error = 319863923.158<br/>samples = 116<br/>value = 113270.578>, fillcolor="#fcf1e9"] ;
150 -> 151 ;
152 [label=<GrLivArea &le; 1249.0<br/>squared_error = 240557283.071<br/>samples = 36<br/>value = 101962.611>, fillcolor="#fdf3ec"] ;
151 -> 152 ;
153 [label=<TotalBsmtSF &le; 782.0<br/>squared_error = 210172024.872<br/>samples = 28<br/>value = 97644.643>, fillcolor="#fdf4ee"] ;
152 -> 153 ;
154 [label=<TotalBsmtSF &le; 693.5<br/>squared_error = 59513737.245<br/>samples = 14<br/>value = 89096.429>, fillcolor="#fdf5f0"] ;
153 -> 154 ;
155 [label=<TotalBsmtSF &le; 551.0<br/>squared_error = 44780617.284<br/>samples = 9<br/>value = 85872.222>, fillcolor="#fdf6f1"] ;
154 -> 155 ;
156 [label=<TotalBsmtSF &le; 525.0<br/>squared_error = 50010468.75<br/>samples = 4<br/>value = 89712.5>, fillcolor="#fdf5f0"] ;
155 -> 156 ;
157 [label=<GrLivArea &le; 724.0<br/>squared_error = 10055000.0<br/>samples = 3<br/>value = 85950.0>, fillcolor="#fdf6f1"] ;
156 -> 157 ;
158 [label=<squared_error = 0.0<br/>samples = 1<br/>value = 90350.0>, fillcolor="#fdf5f0"] ;
157 -> 158 ;
159 [label=<GarageCars &le; 0.5<br/>squared_error = 562500.0<br/>samples = 2<br/>value = 83750.0>, fillcolor="#fdf6f1"] ;
157 -> 159 ;
160 [label=<squared_error = 0.0<br/>samples = 1<br/>value = 84500.0>, fillcolor="#fdf6f1"] ;
159 -> 160 ;
161 [label=<squared_error = 0.0<br/>samples = 1<br/>value = 83000.0>, fillcolor="#fdf6f2"] ;
159 -> 161 ;
162 [label=<squared_error = 0.0<br/>samples = 1<br/>value = 101000.0>, fillcolor="#fdf3ed"] ;
156 -> 162 ;
163 [label=<GrLivArea &le; 968.0<br/>squared_error = 19360000.0<br/>samples = 5<br/>value = 82800.0>, fillcolor="#fdf7f2"] ;
155 -> 163 ;
164 [label=<GarageCars &le; 0.5<br/>squared_error = 1000000.0<br/>samples = 2<br/>value = 88000.0>, fillcolor="#fdf6f0"] ;
163 -> 164 ;
165 [label=<squared_error = 0.0<br/>samples = 1<br/>value = 87000.0>, fillcolor="#fdf6f0"] ;
164 -> 165 ;
166 [label=<squared_error = 0.0<br/>samples = 1<br/>value = 89000.0>, fillcolor="#fdf5f0"] ;
164 -> 166 ;
167 [label=<TotRmsAbvGrd &le; 7.0<br/>squared_error = 1555555.556<br/>samples = 3<br/>value = 79333.333>, fillcolor="#fdf7f3"] ;
163 -> 167 ;
168 [label=<1stFlrSF &le; 584.0<br/>squared_error = 250000.0<br/>samples = 2<br/>value = 78500.0>, fillcolor="#fdf7f3"] ;
167 -> 168 ;
169 [label=<squared_error = 0.0<br/>samples = 1<br/>value = 79000.0>, fillcolor="#fdf7f3"] ;
168 -> 169 ;
170 [label=<squared_error = 0.0<br/>samples = 1<br/>value = 78000.0>, fillcolor="#fdf7f3"] ;
168 -> 170 ;
171 [label=<squared_error = 0.0<br/>samples = 1<br/>value = 81000.0>, fillcolor="#fdf7f2"] ;
167 -> 171 ;
172 [label=<TotalBsmtSF &le; 741.5<br/>squared_error = 33640000.0<br/>samples = 5<br/>value = 94900.0>, fillcolor="#fdf4ee"] ;
154 -> 172 ;
173 [label=<squared_error = 0.0<br/>samples = 1<br/>value = 105000.0>, fillcolor="#fcf3eb"] ;
172 -> 173 ;
174 [label=<1stFlrSF &le; 789.5<br/>squared_error = 10171875.0<br/>samples = 4<br/>value = 92375.0>, fillcolor="#fdf5ef"] ;
172 -> 174 ;
175 [label=<YearBuilt &le; 1900.5<br/>squared_error = 1562500.0<br/>samples = 2<br/>value = 95250.0>, fillcolor="#fdf4ee"] ;
174 -> 175 ;
176 [label=<squared_error = 0.0<br/>samples = 1<br/>value = 94000.0>, fillcolor="#fdf5ef"] ;
175 -> 176 ;
177 [label=<squared_error = 0.0<br/>samples = 1<br/>value = 96500.0>, fillcolor="#fdf4ee"] ;
175 -> 177 ;
178 [label=<TotRmsAbvGrd &le; 5.0<br/>squared_error = 2250000.0<br/>samples = 2<br/>value = 89500.0>, fillcolor="#fdf5f0"] ;
174 -> 178 ;
179 [label=<squared_error = 0.0<br/>samples = 1<br/>value = 91000.0>, fillcolor="#fdf5ef"] ;
178 -> 179 ;
180 [label=<squared_error = 0.0<br/>samples = 1<br/>value = 88000.0>, fillcolor="#fdf6f0"] ;
178 -> 180 ;
181 [label=<GarageCars &le; 0.5<br/>squared_error = 214686377.551<br/>samples = 14<br/>value = 106192.857>, fillcolor="#fcf2eb"] ;
153 -> 181 ;
182 [label=<YearBuilt &le; 1921.0<br/>squared_error = 113962400.0<br/>samples = 5<br/>value = 94460.0>, fillcolor="#fdf4ee"] ;
181 -> 182 ;
183 [label=<YearBuilt &le; 1915.0<br/>squared_error = 6502500.0<br/>samples = 2<br/>value = 82450.0>, fillcolor="#fdf7f2"] ;
182 -> 183 ;
184 [label=<squared_error = 0.0<br/>samples = 1<br/>value = 85000.0>, fillcolor="#fdf6f1"] ;
183 -> 184 ;
185 [label=<squared_error = 0.0<br/>samples = 1<br/>value = 79900.0>, fillcolor="#fdf7f2"] ;
183 -> 185 ;
186 [label=<TotalBsmtSF &le; 824.0<br/>squared_error = 25335555.556<br/>samples = 3<br/>value = 102466.667>, fillcolor="#fdf3ec"] ;
182 -> 186 ;
187 [label=<squared_error = 0.0<br/>samples = 1<br/>value = 109500.0>, fillcolor="#fcf2ea"] ;
186 -> 187 ;
188 [label=<YearBuilt &le; 1923.5<br/>squared_error = 902500.0<br/>samples = 2<br/>value = 98950.0>, fillcolor="#fdf4ed"] ;
186 -> 188 ;
189 [label=<squared_error = 0.0<br/>samples = 1<br/>value = 99900.0>, fillcolor="#fdf3ed"] ;
188 -> 189 ;
190 [label=<squared_error = 0.0<br/>samples = 1<br/>value = 98000.0>, fillcolor="#fdf4ed"] ;
188 -> 190 ;
191 [label=<GrLivArea &le; 1234.5<br/>squared_error = 151678765.432<br/>samples = 9<br/>value = 112711.111>, fillcolor="#fcf1e9"] ;
181 -> 191 ;
192 [label=<YearBuilt &le; 1921.0<br/>squared_error = 77676875.0<br/>samples = 8<br/>value = 115925.0>, fillcolor="#fcf1e8"] ;
191 -> 192 ;
193 [label=<YearBuilt &le; 1917.0<br/>squared_error = 20250000.0<br/>samples = 2<br/>value = 125500.0>, fillcolor="#fcefe6"] ;
192 -> 193 ;
194 [label=<squared_error = 0.0<br/>samples = 1<br/>value = 121000.0>, fillcolor="#fcf0e7"] ;
193 -> 194 ;
195 [label=<squared_error = 0.0<br/>samples = 1<br/>value = 130000.0>, fillcolor="#fceee4"] ;
193 -> 195 ;
196 [label=<1stFlrSF &le; 968.0<br/>squared_error = 56072222.222<br/>samples = 6<br/>value = 112733.333>, fillcolor="#fcf1e9"] ;
192 -> 196 ;
197 [label=<TotalBsmtSF &le; 814.5<br/>squared_error = 39637600.0<br/>samples = 5<br/>value = 114880.0>, fillcolor="#fcf1e9"] ;
196 -> 197 ;
198 [label=<OverallQual &le; 5.5<br/>squared_error = 6502500.0<br/>samples = 2<br/>value = 107450.0>, fillcolor="#fcf2eb"] ;
197 -> 198 ;
199 [label=<squared_error = 0.0<br/>samples = 1<br/>value = 104900.0>, fillcolor="#fcf3eb"] ;
198 -> 199 ;
200 [label=<squared_error = 0.0<br/>samples = 1<br/>value = 110000.0>, fillcolor="#fcf2ea"] ;
198 -> 200 ;
201 [label=<TotRmsAbvGrd &le; 4.5<br/>squared_error = 388888.889<br/>samples = 3<br/>value = 119833.333>, fillcolor="#fcf0e7"] ;
197 -> 201 ;
202 [label=<squared_error = 0.0<br/>samples = 1<br/>value = 119000.0>, fillcolor="#fcf0e8"] ;
201 -> 202 ;
203 [label=<GrLivArea &le; 987.0<br/>squared_error = 62500.0<br/>samples = 2<br/>value = 120250.0>, fillcolor="#fcf0e7"] ;
201 -> 203 ;
204 [label=<squared_error = 0.0<br/>samples = 1<br/>value = 120500.0>, fillcolor="#fcf0e7"] ;
203 -> 204 ;
205 [label=<squared_error = 0.0<br/>samples = 1<br/>value = 120000.0>, fillcolor="#fcf0e7"] ;
203 -> 205 ;
206 [label=<squared_error = 0.0<br/>samples = 1<br/>value = 102000.0>, fillcolor="#fdf3ec"] ;
196 -> 206 ;
207 [label=<squared_error = 0.0<br/>samples = 1<br/>value = 87000.0>, fillcolor="#fdf6f0"] ;
191 -> 207 ;
208 [label=<TotalBsmtSF &le; 678.0<br/>squared_error = 53249301.75<br/>samples = 8<br/>value = 117075.5>, fillcolor="#fcf0e8"] ;
152 -> 208 ;
209 [label=<YearBuilt &le; 1924.5<br/>squared_error = 17640000.0<br/>samples = 2<br/>value = 107800.0>, fillcolor="#fcf2eb"] ;
208 -> 209 ;
210 [label=<squared_error = 0.0<br/>samples = 1<br/>value = 112000.0>, fillcolor="#fcf1ea"] ;
209 -> 210 ;
211 [label=<squared_error = 0.0<br/>samples = 1<br/>value = 103600.0>, fillcolor="#fcf3ec"] ;
209 -> 211 ;
212 [label=<1stFlrSF &le; 729.5<br/>squared_error = 26881335.556<br/>samples = 6<br/>value = 120167.333>, fillcolor="#fcf0e7"] ;
208 -> 212 ;
213 [label=<GrLivArea &le; 1309.0<br/>squared_error = 559504.0<br/>samples = 2<br/>value = 115252.0>, fillcolor="#fcf1e9"] ;
212 -> 213 ;
214 [label=<squared_error = 0.0<br/>samples = 1<br/>value = 116000.0>, fillcolor="#fcf1e8"] ;
213 -> 214 ;
215 [label=<squared_error = 0.0<br/>samples = 1<br/>value = 114504.0>, fillcolor="#fcf1e9"] ;
213 -> 215 ;
216 [label=<OverallQual &le; 5.5<br/>squared_error = 21921875.0<br/>samples = 4<br/>value = 122625.0>, fillcolor="#fcefe7"] ;
212 -> 216 ;
217 [label=<YearBuilt &le; 1912.5<br/>squared_error = 1000000.0<br/>samples = 2<br/>value = 118000.0>, fillcolor="#fcf0e8"] ;
216 -> 217 ;
218 [label=<squared_error = 0.0<br/>samples = 1<br/>value = 119000.0>, fillcolor="#fcf0e8"] ;
217 -> 218 ;
219 [label=<squared_error = 0.0<br/>samples = 1<br/>value = 117000.0>, fillcolor="#fcf0e8"] ;
217 -> 219 ;
220 [label=<TotalBsmtSF &le; 784.0<br/>squared_error = 62500.0<br/>samples = 2<br/>value = 127250.0>, fillcolor="#fcefe5"] ;
216 -> 220 ;
221 [label=<squared_error = 0.0<br/>samples = 1<br/>value = 127000.0>, fillcolor="#fcefe5"] ;
220 -> 221 ;
222 [label=<squared_error = 0.0<br/>samples = 1<br/>value = 127500.0>, fillcolor="#fcefe5"] ;
220 -> 222 ;
223 [label=<1stFlrSF &le; 550.5<br/>squared_error = 272116667.161<br/>samples = 80<br/>value = 118359.162>, fillcolor="#fcf0e8"] ;
151 -> 223 ;
224 [label=<YearBuilt &le; 1970.5<br/>squared_error = 58891020.408<br/>samples = 7<br/>value = 92342.857>, fillcolor="#fdf5ef"] ;
223 -> 224 ;
225 [label=<squared_error = 0.0<br/>samples = 1<br/>value = 106000.0>, fillcolor="#fcf2eb"] ;
224 -> 225 ;
226 [label=<YearBuilt &le; 1971.5<br/>squared_error = 32438888.889<br/>samples = 6<br/>value = 90066.667>, fillcolor="#fdf5f0"] ;
224 -> 226 ;
227 [label=<TotRmsAbvGrd &le; 4.5<br/>squared_error = 2868888.889<br/>samples = 3<br/>value = 87633.333>, fillcolor="#fdf6f0"] ;
226 -> 227 ;
228 [label=<squared_error = 0.0<br/>samples = 1<br/>value = 85400.0>, fillcolor="#fdf6f1"] ;
227 -> 228 ;
229 [label=<GrLivArea &le; 1039.5<br/>squared_error = 562500.0<br/>samples = 2<br/>value = 88750.0>, fillcolor="#fdf5f0"] ;
227 -> 229 ;
230 [label=<squared_error = 0.0<br/>samples = 1<br/>value = 89500.0>, fillcolor="#fdf5f0"] ;
229 -> 230 ;
231 [label=<squared_error = 0.0<br/>samples = 1<br/>value = 88000.0>, fillcolor="#fdf6f0"] ;
229 -> 231 ;
232 [label=<YearBuilt &le; 1972.5<br/>squared_error = 50166666.667<br/>samples = 3<br/>value = 92500.0>, fillcolor="#fdf5ef"] ;
226 -> 232 ;
233 [label=<squared_error = 0.0<br/>samples = 1<br/>value = 94500.0>, fillcolor="#fdf4ee"] ;
232 -> 233 ;
234 [label=<squared_error = 72250000.0<br/>samples = 2<br/>value = 91500.0>, fillcolor="#fdf5ef"] ;
232 -> 234 ;
235 [label=<TotalBsmtSF &le; 953.0<br/>squared_error = 221436116.327<br/>samples = 73<br/>value = 120853.877>, fillcolor="#fcf0e7"] ;
223 -> 235 ;
236 [label=<TotRmsAbvGrd &le; 5.5<br/>squared_error = 211286213.68<br/>samples = 72<br/>value = 120428.236>, fillcolor="#fcf0e7"] ;
235 -> 236 ;
237 [label=<TotalBsmtSF &le; 186.0<br/>squared_error = 204980097.225<br/>samples = 44<br/>value = 117966.659>, fillcolor="#fcf0e8"] ;
236 -> 237 ;
238 [label=<GrLivArea &le; 1003.0<br/>squared_error = 45562500.0<br/>samples = 2<br/>value = 99750.0>, fillcolor="#fdf3ed"] ;
237 -> 238 ;
239 [label=<squared_error = 0.0<br/>samples = 1<br/>value = 106500.0>, fillcolor="#fcf2eb"] ;
238 -> 239 ;
240 [label=<squared_error = 0.0<br/>samples = 1<br/>value = 93000.0>, fillcolor="#fdf5ef"] ;
238 -> 240 ;
241 [label=<YearBuilt &le; 1948.5<br/>squared_error = 196016702.295<br/>samples = 42<br/>value = 118834.119>, fillcolor="#fcf0e8"] ;
237 -> 241 ;
242 [label=<TotalBsmtSF &le; 644.0<br/>squared_error = 68405612.245<br/>samples = 7<br/>value = 111678.571>, fillcolor="#fcf1ea"] ;
241 -> 242 ;
243 [label=<squared_error = 0.0<br/>samples = 1<br/>value = 95000.0>, fillcolor="#fdf4ee"] ;
242 -> 243 ;
244 [label=<TotalBsmtSF &le; 730.0<br/>squared_error = 25717013.889<br/>samples = 6<br/>value = 114458.333>, fillcolor="#fcf1e9"] ;
242 -> 244 ;
245 [label=<GarageCars &le; 0.5<br/>squared_error = 14421875.0<br/>samples = 4<br/>value = 111625.0>, fillcolor="#fcf1ea"] ;
244 -> 245 ;
246 [label=<GrLivArea &le; 782.0<br/>squared_error = 14062500.0<br/>samples = 2<br/>value = 114250.0>, fillcolor="#fcf1e9"] ;
245 -> 246 ;
247 [label=<squared_error = 0.0<br/>samples = 1<br/>value = 118000.0>, fillcolor="#fcf0e8"] ;
246 -> 247 ;
248 [label=<squared_error = 0.0<br/>samples = 1<br/>value = 110500.0>, fillcolor="#fcf2ea"] ;
246 -> 248 ;
249 [label=<TotRmsAbvGrd &le; 4.5<br/>squared_error = 1000000.0<br/>samples = 2<br/>value = 109000.0>, fillcolor="#fcf2ea"] ;
245 -> 249 ;
250 [label=<squared_error = 0.0<br/>samples = 1<br/>value = 108000.0>, fillcolor="#fcf2eb"] ;
249 -> 250 ;
251 [label=<squared_error = 0.0<br/>samples = 1<br/>value = 110000.0>, fillcolor="#fcf2ea"] ;
249 -> 251 ;
252 [label=<YearBuilt &le; 1939.0<br/>squared_error = 140625.0<br/>samples = 2<br/>value = 120125.0>, fillcolor="#fcf0e7"] ;
244 -> 252 ;
253 [label=<squared_error = 0.0<br/>samples = 1<br/>value = 119750.0>, fillcolor="#fcf0e7"] ;
252 -> 253 ;
254 [label=<squared_error = 0.0<br/>samples = 1<br/>value = 120500.0>, fillcolor="#fcf0e7"] ;
252 -> 254 ;
255 [label=<TotalBsmtSF &le; 490.0<br/>squared_error = 209250473.491<br/>samples = 35<br/>value = 120265.229>, fillcolor="#fcf0e7"] ;
241 -> 255 ;
256 [label=<squared_error = 0.0<br/>samples = 1<br/>value = 139000.0>, fillcolor="#fbede2"] ;
255 -> 256 ;
257 [label=<1stFlrSF &le; 915.0<br/>squared_error = 204777989.046<br/>samples = 34<br/>value = 119714.206>, fillcolor="#fcf0e7"] ;
255 -> 257 ;
258 [label=<GrLivArea &le; 893.0<br/>squared_error = 256769144.873<br/>samples = 24<br/>value = 121199.292>, fillcolor="#fcf0e7"] ;
257 -> 258 ;
259 [label=<YearBuilt &le; 1969.5<br/>squared_error = 312565783.454<br/>samples = 14<br/>value = 117020.214>, fillcolor="#fcf0e8"] ;
258 -> 259 ;
260 [label=<YearBuilt &le; 1962.0<br/>squared_error = 450634749.673<br/>samples = 7<br/>value = 109040.429>, fillcolor="#fcf2ea"] ;
259 -> 260 ;
261 [label=<TotRmsAbvGrd &le; 4.5<br/>squared_error = 55069600.0<br/>samples = 5<br/>value = 120180.0>, fillcolor="#fcf0e7"] ;
260 -> 261 ;
262 [label=<1stFlrSF &le; 803.0<br/>squared_error = 10166666.667<br/>samples = 3<br/>value = 114500.0>, fillcolor="#fcf1e9"] ;
261 -> 262 ;
263 [label=<squared_error = 0.0<br/>samples = 1<br/>value = 110000.0>, fillcolor="#fcf2ea"] ;
262 -> 263 ;
264 [label=<TotalBsmtSF &le; 845.5<br/>squared_error = 62500.0<br/>samples = 2<br/>value = 116750.0>, fillcolor="#fcf0e8"] ;
262 -> 264 ;
265 [label=<squared_error = 0.0<br/>samples = 1<br/>value = 117000.0>, fillcolor="#fcf0e8"] ;
264 -> 265 ;
266 [label=<squared_error = 0.0<br/>samples = 1<br/>value = 116500.0>, fillcolor="#fcf1e8"] ;
264 -> 266 ;
267 [label=<TotalBsmtSF &le; 840.0<br/>squared_error = 1440000.0<br/>samples = 2<br/>value = 128700.0>, fillcolor="#fceee5"] ;
261 -> 267 ;
268 [label=<squared_error = 0.0<br/>samples = 1<br/>value = 129900.0>, fillcolor="#fceee5"] ;
267 -> 268 ;
269 [label=<squared_error = 0.0<br/>samples = 1<br/>value = 127500.0>, fillcolor="#fcefe5"] ;
267 -> 269 ;
270 [label=<1stFlrSF &le; 878.0<br/>squared_error = 353759672.25<br/>samples = 2<br/>value = 81191.5>, fillcolor="#fdf7f2"] ;
260 -> 270 ;
271 [label=<squared_error = 0.0<br/>samples = 1<br/>value = 62383.0>, fillcolor="#fefaf7"] ;
270 -> 271 ;
272 [label=<squared_error = 0.0<br/>samples = 1<br/>value = 100000.0>, fillcolor="#fdf3ed"] ;
270 -> 272 ;
273 [label=<GarageCars &le; 0.5<br/>squared_error = 47142857.143<br/>samples = 7<br/>value = 125000.0>, fillcolor="#fcefe6"] ;
259 -> 273 ;
274 [label=<OverallQual &le; 5.5<br/>squared_error = 10562500.0<br/>samples = 2<br/>value = 115250.0>, fillcolor="#fcf1e9"] ;
273 -> 274 ;
275 [label=<squared_error = 0.0<br/>samples = 1<br/>value = 112000.0>, fillcolor="#fcf1ea"] ;
274 -> 275 ;
276 [label=<squared_error = 0.0<br/>samples = 1<br/>value = 118500.0>, fillcolor="#fcf0e8"] ;
274 -> 276 ;
277 [label=<TotRmsAbvGrd &le; 4.5<br/>squared_error = 8540000.0<br/>samples = 5<br/>value = 128900.0>, fillcolor="#fceee5"] ;
273 -> 277 ;
278 [label=<squared_error = 0.0<br/>samples = 1<br/>value = 125000.0>, fillcolor="#fcefe6"] ;
277 -> 278 ;
279 [label=<GrLivArea &le; 840.0<br/>squared_error = 5921875.0<br/>samples = 4<br/>value = 129875.0>, fillcolor="#fceee5"] ;
277 -> 279 ;
280 [label=<squared_error = 0.0<br/>samples = 1<br/>value = 130500.0>, fillcolor="#fbeee4"] ;
279 -> 280 ;
281 [label=<squared_error = 7722222.222<br/>samples = 3<br/>value = 129666.667>, fillcolor="#fceee5"] ;
279 -> 281 ;
282 [label=<TotRmsAbvGrd &le; 4.5<br/>squared_error = 119972500.0<br/>samples = 10<br/>value = 127050.0>, fillcolor="#fcefe5"] ;
258 -> 282 ;
283 [label=<squared_error = 0.0<br/>samples = 1<br/>value = 144000.0>, fillcolor="#fbece1"] ;
282 -> 283 ;
284 [label=<OverallQual &le; 5.5<br/>squared_error = 97833333.333<br/>samples = 9<br/>value = 125166.667>, fillcolor="#fcefe6"] ;
282 -> 284 ;
285 [label=<YearBuilt &le; 1963.5<br/>squared_error = 70214843.75<br/>samples = 8<br/>value = 123062.5>, fillcolor="#fcefe6"] ;
284 -> 285 ;
286 [label=<TotalBsmtSF &le; 903.0<br/>squared_error = 18388888.889<br/>samples = 3<br/>value = 114666.667>, fillcolor="#fcf1e9"] ;
285 -> 286 ;
287 [label=<squared_error = 0.0<br/>samples = 1<br/>value = 109500.0>, fillcolor="#fcf2ea"] ;
286 -> 287 ;
288 [label=<squared_error = 7562500.0<br/>samples = 2<br/>value = 117250.0>, fillcolor="#fcf0e8"] ;
286 -> 288 ;
289 [label=<YearBuilt &le; 1965.5<br/>squared_error = 33640000.0<br/>samples = 5<br/>value = 128100.0>, fillcolor="#fceee5"] ;
285 -> 289 ;
290 [label=<squared_error = 0.0<br/>samples = 1<br/>value = 138500.0>, fillcolor="#fbede2"] ;
289 -> 290 ;
291 [label=<TotalBsmtSF &le; 873.0<br/>squared_error = 8250000.0<br/>samples = 4<br/>value = 125500.0>, fillcolor="#fcefe6"] ;
289 -> 291 ;
292 [label=<squared_error = 0.0<br/>samples = 1<br/>value = 130000.0>, fillcolor="#fceee4"] ;
291 -> 292 ;
293 [label=<TotalBsmtSF &le; 888.0<br/>squared_error = 2000000.0<br/>samples = 3<br/>value = 124000.0>, fillcolor="#fcefe6"] ;
291 -> 293 ;
294 [label=<squared_error = 0.0<br/>samples = 1<br/>value = 122000.0>, fillcolor="#fcf0e7"] ;
293 -> 294 ;
295 [label=<squared_error = 0.0<br/>samples = 2<br/>value = 125000.0>, fillcolor="#fcefe6"] ;
293 -> 295 ;
296 [label=<squared_error = 0.0<br/>samples = 1<br/>value = 142000.0>, fillcolor="#fbece1"] ;
284 -> 296 ;
297 [label=<GrLivArea &le; 920.5<br/>squared_error = 62002500.0<br/>samples = 10<br/>value = 116150.0>, fillcolor="#fcf1e8"] ;
257 -> 297 ;
298 [label=<squared_error = 0.0<br/>samples = 1<br/>value = 99500.0>, fillcolor="#fdf4ed"] ;
297 -> 298 ;
299 [label=<TotRmsAbvGrd &le; 4.5<br/>squared_error = 34666666.667<br/>samples = 9<br/>value = 118000.0>, fillcolor="#fcf0e8"] ;
297 -> 299 ;
300 [label=<FullBath &le; 1.5<br/>squared_error = 3062500.0<br/>samples = 2<br/>value = 125750.0>, fillcolor="#fcefe6"] ;
299 -> 300 ;
301 [label=<squared_error = 0.0<br/>samples = 1<br/>value = 124000.0>, fillcolor="#fcefe6"] ;
300 -> 301 ;
302 [label=<squared_error = 0.0<br/>samples = 1<br/>value = 127500.0>, fillcolor="#fcefe5"] ;
300 -> 302 ;
303 [label=<1stFlrSF &le; 1053.5<br/>squared_error = 21632653.061<br/>samples = 7<br/>value = 115785.714>, fillcolor="#fcf1e8"] ;
299 -> 303 ;
304 [label=<GrLivArea &le; 923.5<br/>squared_error = 15340000.0<br/>samples = 5<br/>value = 113900.0>, fillcolor="#fcf1e9"] ;
303 -> 304 ;
305 [label=<squared_error = 0.0<br/>samples = 1<br/>value = 119500.0>, fillcolor="#fcf0e7"] ;
304 -> 305 ;
306 [label=<TotalBsmtSF &le; 924.5<br/>squared_error = 9375000.0<br/>samples = 4<br/>value = 112500.0>, fillcolor="#fcf1e9"] ;
304 -> 306 ;
307 [label=<squared_error = 0.0<br/>samples = 2<br/>value = 110000.0>, fillcolor="#fcf2ea"] ;
306 -> 307 ;
308 [label=<TotalBsmtSF &le; 926.5<br/>squared_error = 6250000.0<br/>samples = 2<br/>value = 115000.0>, fillcolor="#fcf1e9"] ;
306 -> 308 ;
309 [label=<squared_error = 0.0<br/>samples = 1<br/>value = 117500.0>, fillcolor="#fcf0e8"] ;
308 -> 309 ;
310 [label=<squared_error = 0.0<br/>samples = 1<br/>value = 112500.0>, fillcolor="#fcf1e9"] ;
308 -> 310 ;
311 [label=<1stFlrSF &le; 1223.5<br/>squared_error = 6250000.0<br/>samples = 2<br/>value = 120500.0>, fillcolor="#fcf0e7"] ;
303 -> 311 ;
312 [label=<squared_error = 0.0<br/>samples = 1<br/>value = 118000.0>, fillcolor="#fcf0e8"] ;
311 -> 312 ;
313 [label=<squared_error = 0.0<br/>samples = 1<br/>value = 123000.0>, fillcolor="#fcefe6"] ;
311 -> 313 ;
314 [label=<1stFlrSF &le; 983.5<br/>squared_error = 196711058.673<br/>samples = 28<br/>value = 124296.429>, fillcolor="#fcefe6"] ;
236 -> 314 ;
315 [label=<GrLivArea &le; 1348.0<br/>squared_error = 205467755.102<br/>samples = 21<br/>value = 121228.571>, fillcolor="#fcf0e7"] ;
314 -> 315 ;
316 [label=<GarageCars &le; 0.5<br/>squared_error = 133770625.0<br/>samples = 16<br/>value = 118425.0>, fillcolor="#fcf0e8"] ;
315 -> 316 ;
317 [label=<squared_error = 0.0<br/>samples = 1<br/>value = 91500.0>, fillcolor="#fdf5ef"] ;
316 -> 317 ;
318 [label=<TotalBsmtSF &le; 696.0<br/>squared_error = 91136266.667<br/>samples = 15<br/>value = 120220.0>, fillcolor="#fcf0e7"] ;
316 -> 318 ;
319 [label=<1stFlrSF &le; 685.0<br/>squared_error = 27440000.0<br/>samples = 5<br/>value = 113600.0>, fillcolor="#fcf1e9"] ;
318 -> 319 ;
320 [label=<1stFlrSF &le; 628.0<br/>squared_error = 11187500.0<br/>samples = 4<br/>value = 115750.0>, fillcolor="#fcf1e8"] ;
319 -> 320 ;
321 [label=<squared_error = 0.0<br/>samples = 1<br/>value = 120000.0>, fillcolor="#fcf0e7"] ;
320 -> 321 ;
322 [label=<FullBath &le; 1.5<br/>squared_error = 6888888.889<br/>samples = 3<br/>value = 114333.333>, fillcolor="#fcf1e9"] ;
320 -> 322 ;
323 [label=<YearBuilt &le; 1972.5<br/>squared_error = 6250000.0<br/>samples = 2<br/>value = 115500.0>, fillcolor="#fcf1e9"] ;
322 -> 323 ;
324 [label=<squared_error = 0.0<br/>samples = 1<br/>value = 118000.0>, fillcolor="#fcf0e8"] ;
323 -> 324 ;
325 [label=<squared_error = 0.0<br/>samples = 1<br/>value = 113000.0>, fillcolor="#fcf1e9"] ;
323 -> 325 ;
326 [label=<squared_error = 0.0<br/>samples = 1<br/>value = 112000.0>, fillcolor="#fcf1ea"] ;
322 -> 326 ;
327 [label=<squared_error = 0.0<br/>samples = 1<br/>value = 105000.0>, fillcolor="#fcf3eb"] ;
319 -> 327 ;
328 [label=<TotalBsmtSF &le; 870.0<br/>squared_error = 90116100.0<br/>samples = 10<br/>value = 123530.0>, fillcolor="#fcefe6"] ;
318 -> 328 ;
329 [label=<1stFlrSF &le; 939.0<br/>squared_error = 30818055.556<br/>samples = 6<br/>value = 129483.333>, fillcolor="#fceee5"] ;
328 -> 329 ;
330 [label=<YearBuilt &le; 1943.0<br/>squared_error = 14940000.0<br/>samples = 5<br/>value = 131400.0>, fillcolor="#fbeee4"] ;
329 -> 330 ;
331 [label=<squared_error = 0.0<br/>samples = 1<br/>value = 126000.0>, fillcolor="#fcefe6"] ;
330 -> 331 ;
332 [label=<TotalBsmtSF &le; 839.0<br/>squared_error = 9562500.0<br/>samples = 4<br/>value = 132750.0>, fillcolor="#fbeee4"] ;
330 -> 332 ;
333 [label=<TotRmsAbvGrd &le; 6.5<br/>squared_error = 6500000.0<br/>samples = 3<br/>value = 131500.0>, fillcolor="#fbeee4"] ;
332 -> 333 ;
334 [label=<1stFlrSF &le; 840.5<br/>squared_error = 562500.0<br/>samples = 2<br/>value = 129750.0>, fillcolor="#fceee5"] ;
333 -> 334 ;
335 [label=<squared_error = 0.0<br/>samples = 1<br/>value = 130500.0>, fillcolor="#fbeee4"] ;
334 -> 335 ;
336 [label=<squared_error = 0.0<br/>samples = 1<br/>value = 129000.0>, fillcolor="#fceee5"] ;
334 -> 336 ;
337 [label=<squared_error = 0.0<br/>samples = 1<br/>value = 135000.0>, fillcolor="#fbede3"] ;
333 -> 337 ;
338 [label=<squared_error = 0.0<br/>samples = 1<br/>value = 136500.0>, fillcolor="#fbede3"] ;
332 -> 338 ;
339 [label=<squared_error = 0.0<br/>samples = 1<br/>value = 119900.0>, fillcolor="#fcf0e7"] ;
329 -> 339 ;
340 [label=<GrLivArea &le; 903.0<br/>squared_error = 46155000.0<br/>samples = 4<br/>value = 114600.0>, fillcolor="#fcf1e9"] ;
328 -> 340 ;
341 [label=<squared_error = 0.0<br/>samples = 1<br/>value = 125500.0>, fillcolor="#fcefe6"] ;
340 -> 341 ;
342 [label=<GrLivArea &le; 1146.0<br/>squared_error = 8735555.556<br/>samples = 3<br/>value = 110966.667>, fillcolor="#fcf2ea"] ;
340 -> 342 ;
343 [label=<TotalBsmtSF &le; 912.0<br/>squared_error = 902500.0<br/>samples = 2<br/>value = 108950.0>, fillcolor="#fcf2ea"] ;
342 -> 343 ;
344 [label=<squared_error = 0.0<br/>samples = 1<br/>value = 109900.0>, fillcolor="#fcf2ea"] ;
343 -> 344 ;
345 [label=<squared_error = 0.0<br/>samples = 1<br/>value = 108000.0>, fillcolor="#fcf2eb"] ;
343 -> 345 ;
346 [label=<squared_error = 0.0<br/>samples = 1<br/>value = 115000.0>, fillcolor="#fcf1e9"] ;
342 -> 346 ;
347 [label=<GrLivArea &le; 1375.5<br/>squared_error = 329260000.0<br/>samples = 5<br/>value = 130200.0>, fillcolor="#fceee4"] ;
315 -> 347 ;
348 [label=<TotRmsAbvGrd &le; 6.5<br/>squared_error = 155722222.222<br/>samples = 3<br/>value = 142166.667>, fillcolor="#fbece1"] ;
347 -> 348 ;
349 [label=<GrLivArea &le; 1365.0<br/>squared_error = 45562500.0<br/>samples = 2<br/>value = 134250.0>, fillcolor="#fbede3"] ;
348 -> 349 ;
350 [label=<squared_error = 0.0<br/>samples = 1<br/>value = 127500.0>, fillcolor="#fcefe5"] ;
349 -> 350 ;
351 [label=<squared_error = 0.0<br/>samples = 1<br/>value = 141000.0>, fillcolor="#fbece1"] ;
349 -> 351 ;
352 [label=<squared_error = 0.0<br/>samples = 1<br/>value = 158000.0>, fillcolor="#fae9dd"] ;
348 -> 352 ;
353 [label=<YearBuilt &le; 1939.0<br/>squared_error = 52562500.0<br/>samples = 2<br/>value = 112250.0>, fillcolor="#fcf1e9"] ;
347 -> 353 ;
354 [label=<squared_error = 0.0<br/>samples = 1<br/>value = 119500.0>, fillcolor="#fcf0e7"] ;
353 -> 354 ;
355 [label=<squared_error = 0.0<br/>samples = 1<br/>value = 105000.0>, fillcolor="#fcf3eb"] ;
353 -> 355 ;
356 [label=<GrLivArea &le; 1276.5<br/>squared_error = 57500000.0<br/>samples = 7<br/>value = 133500.0>, fillcolor="#fbeee4"] ;
314 -> 356 ;
357 [label=<TotalBsmtSF &le; 710.0<br/>squared_error = 19600000.0<br/>samples = 5<br/>value = 137500.0>, fillcolor="#fbede2"] ;
356 -> 357 ;
358 [label=<1stFlrSF &le; 1116.5<br/>squared_error = 6250000.0<br/>samples = 2<br/>value = 142500.0>, fillcolor="#fbece1"] ;
357 -> 358 ;
359 [label=<squared_error = 0.0<br/>samples = 1<br/>value = 140000.0>, fillcolor="#fbece2"] ;
358 -> 359 ;
360 [label=<squared_error = 0.0<br/>samples = 1<br/>value = 145000.0>, fillcolor="#fbebe0"] ;
358 -> 360 ;
361 [label=<YearBuilt &le; 1955.0<br/>squared_error = 722222.222<br/>samples = 3<br/>value = 134166.667>, fillcolor="#fbede3"] ;
357 -> 361 ;
362 [label=<squared_error = 0.0<br/>samples = 1<br/>value = 133000.0>, fillcolor="#fbeee4"] ;
361 -> 362 ;
363 [label=<GrLivArea &le; 1117.5<br/>squared_error = 62500.0<br/>samples = 2<br/>value = 134750.0>, fillcolor="#fbede3"] ;
361 -> 363 ;
364 [label=<squared_error = 0.0<br/>samples = 1<br/>value = 134500.0>, fillcolor="#fbede3"] ;
363 -> 364 ;
365 [label=<squared_error = 0.0<br/>samples = 1<br/>value = 135000.0>, fillcolor="#fbede3"] ;
363 -> 365 ;
366 [label=<1stFlrSF &le; 1206.0<br/>squared_error = 12250000.0<br/>samples = 2<br/>value = 123500.0>, fillcolor="#fcefe6"] ;
356 -> 366 ;
367 [label=<squared_error = 0.0<br/>samples = 1<br/>value = 127000.0>, fillcolor="#fcefe5"] ;
366 -> 367 ;
368 [label=<squared_error = 0.0<br/>samples = 1<br/>value = 120000.0>, fillcolor="#fcf0e7"] ;
366 -> 368 ;
369 [label=<squared_error = 0.0<br/>samples = 1<br/>value = 151500.0>, fillcolor="#fbeade"] ;
235 -> 369 ;
370 [label=<YearBuilt &le; 1956.0<br/>squared_error = 385320269.498<br/>samples = 75<br/>value = 131965.907>, fillcolor="#fbeee4"] ;
150 -> 370 ;
371 [label=<GrLivArea &le; 814.0<br/>squared_error = 422260285.375<br/>samples = 29<br/>value = 119562.069>, fillcolor="#fcf0e7"] ;
370 -> 371 ;
372 [label=<YearBuilt &le; 1934.5<br/>squared_error = 36222222.222<br/>samples = 3<br/>value = 78666.667>, fillcolor="#fdf7f3"] ;
371 -> 372 ;
373 [label=<GrLivArea &le; 774.0<br/>squared_error = 2250000.0<br/>samples = 2<br/>value = 74500.0>, fillcolor="#fef8f4"] ;
372 -> 373 ;
374 [label=<squared_error = 0.0<br/>samples = 1<br/>value = 73000.0>, fillcolor="#fef8f4"] ;
373 -> 374 ;
375 [label=<squared_error = 0.0<br/>samples = 1<br/>value = 76000.0>, fillcolor="#fdf8f4"] ;
373 -> 375 ;
376 [label=<squared_error = 0.0<br/>samples = 1<br/>value = 87000.0>, fillcolor="#fdf6f0"] ;
372 -> 376 ;
377 [label=<TotalBsmtSF &le; 870.0<br/>squared_error = 251563860.947<br/>samples = 26<br/>value = 124280.769>, fillcolor="#fcefe6"] ;
371 -> 377 ;
378 [label=<TotalBsmtSF &le; 654.5<br/>squared_error = 144065318.56<br/>samples = 19<br/>value = 119631.579>, fillcolor="#fcf0e7"] ;
377 -> 378 ;
379 [label=<GrLivArea &le; 1352.0<br/>squared_error = 124241875.0<br/>samples = 8<br/>value = 113225.0>, fillcolor="#fcf1e9"] ;
378 -> 379 ;
380 [label=<TotRmsAbvGrd &le; 6.5<br/>squared_error = 54722222.222<br/>samples = 6<br/>value = 107966.667>, fillcolor="#fcf2eb"] ;
379 -> 380 ;
381 [label=<TotalBsmtSF &le; 52.5<br/>squared_error = 9796875.0<br/>samples = 4<br/>value = 112875.0>, fillcolor="#fcf1e9"] ;
380 -> 381 ;
382 [label=<squared_error = 0.0<br/>samples = 1<br/>value = 109500.0>, fillcolor="#fcf2ea"] ;
381 -> 382 ;
383 [label=<1stFlrSF &le; 708.0<br/>squared_error = 8000000.0<br/>samples = 3<br/>value = 114000.0>, fillcolor="#fcf1e9"] ;
381 -> 383 ;
384 [label=<squared_error = 0.0<br/>samples = 1<br/>value = 110000.0>, fillcolor="#fcf2ea"] ;
383 -> 384 ;
385 [label=<squared_error = 0.0<br/>samples = 2<br/>value = 116000.0>, fillcolor="#fcf1e8"] ;
383 -> 385 ;
386 [label=<TotalBsmtSF &le; 312.0<br/>squared_error = 22500.0<br/>samples = 2<br/>value = 98150.0>, fillcolor="#fdf4ed"] ;
380 -> 386 ;
387 [label=<squared_error = 0.0<br/>samples = 1<br/>value = 98300.0>, fillcolor="#fdf4ed"] ;
386 -> 387 ;
388 [label=<squared_error = 0.0<br/>samples = 1<br/>value = 98000.0>, fillcolor="#fdf4ed"] ;
386 -> 388 ;
389 [label=<GrLivArea &le; 1361.0<br/>squared_error = 1000000.0<br/>samples = 2<br/>value = 129000.0>, fillcolor="#fceee5"] ;
379 -> 389 ;
390 [label=<squared_error = 0.0<br/>samples = 1<br/>value = 130000.0>, fillcolor="#fceee4"] ;
389 -> 390 ;
391 [label=<squared_error = 0.0<br/>samples = 1<br/>value = 128000.0>, fillcolor="#fceee5"] ;
389 -> 391 ;
392 [label=<YearBuilt &le; 1952.0<br/>squared_error = 106922644.628<br/>samples = 11<br/>value = 124290.909>, fillcolor="#fcefe6"] ;
378 -> 392 ;
393 [label=<TotRmsAbvGrd &le; 7.5<br/>squared_error = 80321093.75<br/>samples = 8<br/>value = 127712.5>, fillcolor="#fcefe5"] ;
392 -> 393 ;
394 [label=<YearBuilt &le; 1928.5<br/>squared_error = 70994285.714<br/>samples = 7<br/>value = 126100.0>, fillcolor="#fcefe6"] ;
393 -> 394 ;
395 [label=<squared_error = 0.0<br/>samples = 1<br/>value = 110000.0>, fillcolor="#fcf2ea"] ;
394 -> 395 ;
396 [label=<TotRmsAbvGrd &le; 4.5<br/>squared_error = 32424722.222<br/>samples = 6<br/>value = 128783.333>, fillcolor="#fceee5"] ;
394 -> 396 ;
397 [label=<GrLivArea &le; 1034.5<br/>squared_error = 2500.0<br/>samples = 2<br/>value = 134950.0>, fillcolor="#fbede3"] ;
396 -> 397 ;
398 [label=<squared_error = 0.0<br/>samples = 1<br/>value = 135000.0>, fillcolor="#fbede3"] ;
397 -> 398 ;
399 [label=<squared_error = 0.0<br/>samples = 1<br/>value = 134900.0>, fillcolor="#fbede3"] ;
397 -> 399 ;
400 [label=<1stFlrSF &le; 828.5<br/>squared_error = 20115000.0<br/>samples = 4<br/>value = 125700.0>, fillcolor="#fcefe6"] ;
396 -> 400 ;
401 [label=<TotRmsAbvGrd &le; 5.5<br/>squared_error = 2250000.0<br/>samples = 2<br/>value = 121400.0>, fillcolor="#fcf0e7"] ;
400 -> 401 ;
402 [label=<squared_error = 0.0<br/>samples = 1<br/>value = 119900.0>, fillcolor="#fcf0e7"] ;
401 -> 402 ;
403 [label=<squared_error = 0.0<br/>samples = 1<br/>value = 122900.0>, fillcolor="#fcefe6"] ;
401 -> 403 ;
404 [label=<TotalBsmtSF &le; 799.5<br/>squared_error = 1000000.0<br/>samples = 2<br/>value = 130000.0>, fillcolor="#fceee4"] ;
400 -> 404 ;
405 [label=<squared_error = 0.0<br/>samples = 1<br/>value = 131000.0>, fillcolor="#fbeee4"] ;
404 -> 405 ;
406 [label=<squared_error = 0.0<br/>samples = 1<br/>value = 129000.0>, fillcolor="#fceee5"] ;
404 -> 406 ;
407 [label=<squared_error = 0.0<br/>samples = 1<br/>value = 139000.0>, fillcolor="#fbede2"] ;
393 -> 407 ;
408 [label=<1stFlrSF &le; 828.5<br/>squared_error = 63388888.889<br/>samples = 3<br/>value = 115166.667>, fillcolor="#fcf1e9"] ;
392 -> 408 ;
409 [label=<squared_error = 0.0<br/>samples = 1<br/>value = 125000.0>, fillcolor="#fcefe6"] ;
408 -> 409 ;
410 [label=<GrLivArea &le; 848.0<br/>squared_error = 22562500.0<br/>samples = 2<br/>value = 110250.0>, fillcolor="#fcf2ea"] ;
408 -> 410 ;
411 [label=<squared_error = 0.0<br/>samples = 1<br/>value = 105500.0>, fillcolor="#fcf2eb"] ;
410 -> 411 ;
412 [label=<squared_error = 0.0<br/>samples = 1<br/>value = 115000.0>, fillcolor="#fcf1e9"] ;
410 -> 412 ;
413 [label=<TotalBsmtSF &le; 960.0<br/>squared_error = 325431428.571<br/>samples = 7<br/>value = 136900.0>, fillcolor="#fbede3"] ;
377 -> 413 ;
414 [label=<TotalBsmtSF &le; 888.0<br/>squared_error = 114912500.0<br/>samples = 6<br/>value = 143050.0>, fillcolor="#fbece1"] ;
413 -> 414 ;
415 [label=<squared_error = 0.0<br/>samples = 1<br/>value = 163500.0>, fillcolor="#fae8db"] ;
414 -> 415 ;
416 [label=<1stFlrSF &le; 939.0<br/>squared_error = 37526400.0<br/>samples = 5<br/>value = 138960.0>, fillcolor="#fbede2"] ;
414 -> 416 ;
417 [label=<TotalBsmtSF &le; 913.0<br/>squared_error = 5760000.0<br/>samples = 2<br/>value = 132400.0>, fillcolor="#fbeee4"] ;
416 -> 417 ;
418 [label=<squared_error = 0.0<br/>samples = 1<br/>value = 134800.0>, fillcolor="#fbede3"] ;
417 -> 418 ;
419 [label=<squared_error = 0.0<br/>samples = 1<br/>value = 130000.0>, fillcolor="#fceee4"] ;
417 -> 419 ;
420 [label=<1stFlrSF &le; 1037.0<br/>squared_error = 10888888.889<br/>samples = 3<br/>value = 143333.333>, fillcolor="#fbece1"] ;
416 -> 420 ;
421 [label=<squared_error = 0.0<br/>samples = 1<br/>value = 139000.0>, fillcolor="#fbede2"] ;
420 -> 421 ;
422 [label=<TotalBsmtSF &le; 919.5<br/>squared_error = 2250000.0<br/>samples = 2<br/>value = 145500.0>, fillcolor="#fbebe0"] ;
420 -> 422 ;
423 [label=<squared_error = 0.0<br/>samples = 1<br/>value = 144000.0>, fillcolor="#fbece1"] ;
422 -> 423 ;
424 [label=<squared_error = 0.0<br/>samples = 1<br/>value = 147000.0>, fillcolor="#fbebe0"] ;
422 -> 424 ;
425 [label=<squared_error = 0.0<br/>samples = 1<br/>value = 100000.0>, fillcolor="#fdf3ed"] ;
413 -> 425 ;
426 [label=<OverallQual &le; 5.5<br/>squared_error = 203886895.768<br/>samples = 46<br/>value = 139785.717>, fillcolor="#fbece2"] ;
370 -> 426 ;
427 [label=<1stFlrSF &le; 697.5<br/>squared_error = 136208919.04<br/>samples = 25<br/>value = 133186.4>, fillcolor="#fbeee4"] ;
426 -> 427 ;
428 [label=<squared_error = 0.0<br/>samples = 1<br/>value = 106000.0>, fillcolor="#fcf2eb"] ;
427 -> 428 ;
429 [label=<YearBuilt &le; 1977.0<br/>squared_error = 109805282.639<br/>samples = 24<br/>value = 134319.167>, fillcolor="#fbede3"] ;
427 -> 429 ;
430 [label=<1stFlrSF &le; 888.0<br/>squared_error = 135158367.347<br/>samples = 14<br/>value = 130485.714>, fillcolor="#fceee4"] ;
429 -> 430 ;
431 [label=<1stFlrSF &le; 792.0<br/>squared_error = 78751388.889<br/>samples = 6<br/>value = 123316.667>, fillcolor="#fcefe6"] ;
430 -> 431 ;
432 [label=<TotalBsmtSF &le; 766.5<br/>squared_error = 10722222.222<br/>samples = 3<br/>value = 129166.667>, fillcolor="#fceee5"] ;
431 -> 432 ;
433 [label=<squared_error = 0.0<br/>samples = 1<br/>value = 125000.0>, fillcolor="#fcefe6"] ;
432 -> 433 ;
434 [label=<YearBuilt &le; 1971.0<br/>squared_error = 3062500.0<br/>samples = 2<br/>value = 131250.0>, fillcolor="#fbeee4"] ;
432 -> 434 ;
435 [label=<squared_error = 0.0<br/>samples = 1<br/>value = 129500.0>, fillcolor="#fceee5"] ;
434 -> 435 ;
436 [label=<squared_error = 0.0<br/>samples = 1<br/>value = 133000.0>, fillcolor="#fbeee4"] ;
434 -> 436 ;
437 [label=<YearBuilt &le; 1960.5<br/>squared_error = 78335555.556<br/>samples = 3<br/>value = 117466.667>, fillcolor="#fcf0e8"] ;
431 -> 437 ;
438 [label=<squared_error = 0.0<br/>samples = 1<br/>value = 129900.0>, fillcolor="#fceee5"] ;
437 -> 438 ;
439 [label=<TotalBsmtSF &le; 849.0<br/>squared_error = 1562500.0<br/>samples = 2<br/>value = 111250.0>, fillcolor="#fcf1ea"] ;
437 -> 439 ;
440 [label=<squared_error = 0.0<br/>samples = 1<br/>value = 110000.0>, fillcolor="#fcf2ea"] ;
439 -> 440 ;
441 [label=<squared_error = 0.0<br/>samples = 1<br/>value = 112500.0>, fillcolor="#fcf1e9"] ;
439 -> 441 ;
442 [label=<YearBuilt &le; 1966.0<br/>squared_error = 110007343.75<br/>samples = 8<br/>value = 135862.5>, fillcolor="#fbede3"] ;
430 -> 442 ;
443 [label=<1stFlrSF &le; 1241.5<br/>squared_error = 9555555.556<br/>samples = 3<br/>value = 144333.333>, fillcolor="#fbece0"] ;
442 -> 443 ;
444 [label=<GrLivArea &le; 1056.0<br/>squared_error = 250000.0<br/>samples = 2<br/>value = 146500.0>, fillcolor="#fbebe0"] ;
443 -> 444 ;
445 [label=<squared_error = 0.0<br/>samples = 1<br/>value = 147000.0>, fillcolor="#fbebe0"] ;
444 -> 445 ;
446 [label=<squared_error = 0.0<br/>samples = 1<br/>value = 146000.0>, fillcolor="#fbebe0"] ;
444 -> 446 ;
447 [label=<squared_error = 0.0<br/>samples = 1<br/>value = 140000.0>, fillcolor="#fbece2"] ;
443 -> 447 ;
448 [label=<YearBuilt &le; 1973.5<br/>squared_error = 101393600.0<br/>samples = 5<br/>value = 130780.0>, fillcolor="#fbeee4"] ;
442 -> 448 ;
449 [label=<TotRmsAbvGrd &le; 5.5<br/>squared_error = 102651875.0<br/>samples = 4<br/>value = 132975.0>, fillcolor="#fbeee4"] ;
448 -> 449 ;
450 [label=<YearBuilt &le; 1970.0<br/>squared_error = 92646666.667<br/>samples = 3<br/>value = 136300.0>, fillcolor="#fbede3"] ;
449 -> 450 ;
451 [label=<YearBuilt &le; 1967.5<br/>squared_error = 250000.0<br/>samples = 2<br/>value = 129500.0>, fillcolor="#fceee5"] ;
450 -> 451 ;
452 [label=<squared_error = 0.0<br/>samples = 1<br/>value = 130000.0>, fillcolor="#fceee4"] ;
451 -> 452 ;
453 [label=<squared_error = 0.0<br/>samples = 1<br/>value = 129000.0>, fillcolor="#fceee5"] ;
451 -> 453 ;
454 [label=<squared_error = 0.0<br/>samples = 1<br/>value = 149900.0>, fillcolor="#fbebdf"] ;
450 -> 454 ;
455 [label=<squared_error = 0.0<br/>samples = 1<br/>value = 123000.0>, fillcolor="#fcefe6"] ;
449 -> 455 ;
456 [label=<squared_error = 0.0<br/>samples = 1<br/>value = 122000.0>, fillcolor="#fcf0e7"] ;
448 -> 456 ;
457 [label=<YearBuilt &le; 1988.0<br/>squared_error = 24934564.0<br/>samples = 10<br/>value = 139686.0>, fillcolor="#fbece2"] ;
429 -> 457 ;
458 [label=<TotalBsmtSF &le; 849.0<br/>squared_error = 14285338.776<br/>samples = 7<br/>value = 137265.714>, fillcolor="#fbede2"] ;
457 -> 458 ;
459 [label=<1stFlrSF &le; 872.0<br/>squared_error = 9555555.556<br/>samples = 3<br/>value = 139666.667>, fillcolor="#fbece2"] ;
458 -> 459 ;
460 [label=<GrLivArea &le; 838.0<br/>squared_error = 250000.0<br/>samples = 2<br/>value = 137500.0>, fillcolor="#fbede2"] ;
459 -> 460 ;
461 [label=<squared_error = 0.0<br/>samples = 1<br/>value = 138000.0>, fillcolor="#fbede2"] ;
460 -> 461 ;
462 [label=<squared_error = 0.0<br/>samples = 1<br/>value = 137000.0>, fillcolor="#fbede3"] ;
460 -> 462 ;
463 [label=<squared_error = 0.0<br/>samples = 1<br/>value = 144000.0>, fillcolor="#fbece1"] ;
459 -> 463 ;
464 [label=<YearBuilt &le; 1982.5<br/>squared_error = 10266675.0<br/>samples = 4<br/>value = 135465.0>, fillcolor="#fbede3"] ;
458 -> 464 ;
465 [label=<1stFlrSF &le; 897.0<br/>squared_error = 4828355.556<br/>samples = 3<br/>value = 136953.333>, fillcolor="#fbede3"] ;
464 -> 465 ;
466 [label=<squared_error = 0.0<br/>samples = 1<br/>value = 134900.0>, fillcolor="#fbede3"] ;
465 -> 466 ;
467 [label=<TotalBsmtSF &le; 939.5<br/>squared_error = 4080400.0<br/>samples = 2<br/>value = 137980.0>, fillcolor="#fbede2"] ;
465 -> 467 ;
468 [label=<squared_error = 0.0<br/>samples = 1<br/>value = 140000.0>, fillcolor="#fbece2"] ;
467 -> 468 ;
469 [label=<squared_error = 0.0<br/>samples = 1<br/>value = 135960.0>, fillcolor="#fbede3"] ;
467 -> 469 ;
470 [label=<squared_error = 0.0<br/>samples = 1<br/>value = 131000.0>, fillcolor="#fbeee4"] ;
464 -> 470 ;
471 [label=<GrLivArea &le; 993.0<br/>squared_error = 4222222.222<br/>samples = 3<br/>value = 145333.333>, fillcolor="#fbebe0"] ;
457 -> 471 ;
472 [label=<squared_error = 0.0<br/>samples = 1<br/>value = 148000.0>, fillcolor="#fbebdf"] ;
471 -> 472 ;
473 [label=<TotalBsmtSF &le; 671.5<br/>squared_error = 1000000.0<br/>samples = 2<br/>value = 144000.0>, fillcolor="#fbece1"] ;
471 -> 473 ;
474 [label=<squared_error = 0.0<br/>samples = 1<br/>value = 145000.0>, fillcolor="#fbebe0"] ;
473 -> 474 ;
475 [label=<squared_error = 0.0<br/>samples = 1<br/>value = 143000.0>, fillcolor="#fbece1"] ;
473 -> 475 ;
476 [label=<YearBuilt &le; 2007.0<br/>squared_error = 170887574.331<br/>samples = 21<br/>value = 147642.048>, fillcolor="#fbebe0"] ;
426 -> 476 ;
477 [label=<YearBuilt &le; 1979.0<br/>squared_error = 132980318.56<br/>samples = 19<br/>value = 145381.579>, fillcolor="#fbebe0"] ;
476 -> 477 ;
478 [label=<TotRmsAbvGrd &le; 4.5<br/>squared_error = 138889225.0<br/>samples = 10<br/>value = 150895.0>, fillcolor="#fbeadf"] ;
477 -> 478 ;
479 [label=<squared_error = 0.0<br/>samples = 1<br/>value = 180000.0>, fillcolor="#fae5d7"] ;
478 -> 479 ;
480 [label=<TotalBsmtSF &le; 737.0<br/>squared_error = 49740987.654<br/>samples = 9<br/>value = 147661.111>, fillcolor="#fbebe0"] ;
478 -> 480 ;
481 [label=<1stFlrSF &le; 1203.0<br/>squared_error = 18062500.0<br/>samples = 2<br/>value = 155250.0>, fillcolor="#fbeadd"] ;
480 -> 481 ;
482 [label=<squared_error = 0.0<br/>samples = 1<br/>value = 159500.0>, fillcolor="#fae9dc"] ;
481 -> 482 ;
483 [label=<squared_error = 0.0<br/>samples = 1<br/>value = 151000.0>, fillcolor="#fbeadf"] ;
481 -> 483 ;
484 [label=<GrLivArea &le; 935.0<br/>squared_error = 37636020.408<br/>samples = 7<br/>value = 145492.857>, fillcolor="#fbebe0"] ;
480 -> 484 ;
485 [label=<squared_error = 0.0<br/>samples = 1<br/>value = 156000.0>, fillcolor="#fbeadd"] ;
484 -> 485 ;
486 [label=<TotRmsAbvGrd &le; 6.5<br/>squared_error = 22442013.889<br/>samples = 6<br/>value = 143741.667>, fillcolor="#fbece1"] ;
484 -> 486 ;
487 [label=<TotalBsmtSF &le; 924.0<br/>squared_error = 17580400.0<br/>samples = 5<br/>value = 144990.0>, fillcolor="#fbebe0"] ;
486 -> 487 ;
488 [label=<GrLivArea &le; 1279.0<br/>squared_error = 1822500.0<br/>samples = 2<br/>value = 148350.0>, fillcolor="#fbebdf"] ;
487 -> 488 ;
489 [label=<squared_error = 0.0<br/>samples = 1<br/>value = 149700.0>, fillcolor="#fbebdf"] ;
488 -> 489 ;
490 [label=<squared_error = 0.0<br/>samples = 1<br/>value = 147000.0>, fillcolor="#fbebe0"] ;
488 -> 490 ;
491 [label=<TotalBsmtSF &le; 938.0<br/>squared_error = 15541666.667<br/>samples = 3<br/>value = 142750.0>, fillcolor="#fbece1"] ;
487 -> 491 ;
492 [label=<squared_error = 0.0<br/>samples = 1<br/>value = 137500.0>, fillcolor="#fbede2"] ;
491 -> 492 ;
493 [label=<1stFlrSF &le; 992.0<br/>squared_error = 2640625.0<br/>samples = 2<br/>value = 145375.0>, fillcolor="#fbebe0"] ;
491 -> 493 ;
494 [label=<squared_error = 0.0<br/>samples = 1<br/>value = 143750.0>, fillcolor="#fbece1"] ;
493 -> 494 ;
495 [label=<squared_error = 0.0<br/>samples = 1<br/>value = 147000.0>, fillcolor="#fbebe0"] ;
493 -> 495 ;
496 [label=<squared_error = 0.0<br/>samples = 1<br/>value = 137500.0>, fillcolor="#fbede2"] ;
486 -> 496 ;
497 [label=<YearBuilt &le; 2003.5<br/>squared_error = 55111358.025<br/>samples = 9<br/>value = 139255.556>, fillcolor="#fbece2"] ;
477 -> 497 ;
498 [label=<TotalBsmtSF &le; 704.5<br/>squared_error = 36125000.0<br/>samples = 4<br/>value = 133000.0>, fillcolor="#fbeee4"] ;
497 -> 498 ;
499 [label=<squared_error = 0.0<br/>samples = 1<br/>value = 124000.0>, fillcolor="#fcefe6"] ;
498 -> 499 ;
500 [label=<TotRmsAbvGrd &le; 3.5<br/>squared_error = 12166666.667<br/>samples = 3<br/>value = 136000.0>, fillcolor="#fbede3"] ;
498 -> 500 ;
501 [label=<squared_error = 6250000.0<br/>samples = 2<br/>value = 134000.0>, fillcolor="#fbede3"] ;
500 -> 501 ;
502 [label=<squared_error = 0.0<br/>samples = 1<br/>value = 140000.0>, fillcolor="#fbece2"] ;
500 -> 502 ;
503 [label=<FullBath &le; 1.5<br/>squared_error = 13950400.0<br/>samples = 5<br/>value = 144260.0>, fillcolor="#fbece1"] ;
497 -> 503 ;
504 [label=<GrLivArea &le; 960.0<br/>squared_error = 11766875.0<br/>samples = 4<br/>value = 145325.0>, fillcolor="#fbebe0"] ;
503 -> 504 ;
505 [label=<squared_error = 12508888.889<br/>samples = 3<br/>value = 144433.333>, fillcolor="#fbece0"] ;
504 -> 505 ;
506 [label=<squared_error = 0.0<br/>samples = 1<br/>value = 148000.0>, fillcolor="#fbebdf"] ;
504 -> 506 ;
507 [label=<squared_error = 0.0<br/>samples = 1<br/>value = 140000.0>, fillcolor="#fbece2"] ;
503 -> 507 ;
508 [label=<squared_error = 21312072.25<br/>samples = 2<br/>value = 169116.5>, fillcolor="#fae7da"] ;
476 -> 508 ;
509 [label=<1stFlrSF &le; 1150.0<br/>squared_error = 511556281.403<br/>samples = 171<br/>value = 145604.205>, fillcolor="#fbebe0"] ;
3 -> 509 ;
510 [label=<GarageCars &le; 1.5<br/>squared_error = 284229680.379<br/>samples = 96<br/>value = 137224.219>, fillcolor="#fbede2"] ;
509 -> 510 ;
511 [label=<GarageCars &le; 0.5<br/>squared_error = 260233267.881<br/>samples = 47<br/>value = 128662.234>, fillcolor="#fceee5"] ;
510 -> 511 ;
512 [label=<YearBuilt &le; 2006.5<br/>squared_error = 619737600.0<br/>samples = 5<br/>value = 108620.0>, fillcolor="#fcf2ea"] ;
511 -> 512 ;
513 [label=<GrLivArea &le; 1001.0<br/>squared_error = 314351875.0<br/>samples = 4<br/>value = 99025.0>, fillcolor="#fdf4ed"] ;
512 -> 513 ;
514 [label=<1stFlrSF &le; 993.0<br/>squared_error = 60840000.0<br/>samples = 2<br/>value = 115800.0>, fillcolor="#fcf1e8"] ;
513 -> 514 ;
515 [label=<squared_error = 0.0<br/>samples = 1<br/>value = 123600.0>, fillcolor="#fcefe6"] ;
514 -> 515 ;
516 [label=<squared_error = 0.0<br/>samples = 1<br/>value = 108000.0>, fillcolor="#fcf2eb"] ;
514 -> 516 ;
517 [label=<TotalBsmtSF &le; 1073.0<br/>squared_error = 5062500.0<br/>samples = 2<br/>value = 82250.0>, fillcolor="#fdf7f2"] ;
513 -> 517 ;
518 [label=<squared_error = 0.0<br/>samples = 1<br/>value = 80000.0>, fillcolor="#fdf7f2"] ;
517 -> 518 ;
519 [label=<squared_error = 0.0<br/>samples = 1<br/>value = 84500.0>, fillcolor="#fdf6f1"] ;
517 -> 519 ;
520 [label=<squared_error = 0.0<br/>samples = 1<br/>value = 147000.0>, fillcolor="#fbebe0"] ;
512 -> 520 ;
521 [label=<YearBuilt &le; 1916.0<br/>squared_error = 163921856.93<br/>samples = 42<br/>value = 131048.214>, fillcolor="#fbeee4"] ;
511 -> 521 ;
522 [label=<squared_error = 0.0<br/>samples = 1<br/>value = 85000.0>, fillcolor="#fdf6f1"] ;
521 -> 522 ;
523 [label=<YearBuilt &le; 1953.5<br/>squared_error = 114940535.396<br/>samples = 41<br/>value = 132171.341>, fillcolor="#fbeee4"] ;
521 -> 523 ;
524 [label=<TotalBsmtSF &le; 1067.5<br/>squared_error = 149625555.556<br/>samples = 9<br/>value = 124758.333>, fillcolor="#fcefe6"] ;
523 -> 524 ;
525 [label=<TotalBsmtSF &le; 985.5<br/>squared_error = 54368055.556<br/>samples = 6<br/>value = 119083.333>, fillcolor="#fcf0e8"] ;
524 -> 525 ;
526 [label=<OverallQual &le; 5.5<br/>squared_error = 18062500.0<br/>samples = 2<br/>value = 127750.0>, fillcolor="#fcefe5"] ;
525 -> 526 ;
527 [label=<squared_error = 0.0<br/>samples = 1<br/>value = 123500.0>, fillcolor="#fcefe6"] ;
526 -> 527 ;
528 [label=<squared_error = 0.0<br/>samples = 1<br/>value = 132000.0>, fillcolor="#fbeee4"] ;
526 -> 528 ;
529 [label=<GrLivArea &le; 1067.0<br/>squared_error = 16187500.0<br/>samples = 4<br/>value = 114750.0>, fillcolor="#fcf1e9"] ;
525 -> 529 ;
530 [label=<1stFlrSF &le; 1052.5<br/>squared_error = 4000000.0<br/>samples = 2<br/>value = 111000.0>, fillcolor="#fcf1ea"] ;
529 -> 530 ;
531 [label=<squared_error = 0.0<br/>samples = 1<br/>value = 113000.0>, fillcolor="#fcf1e9"] ;
530 -> 531 ;
532 [label=<squared_error = 0.0<br/>samples = 1<br/>value = 109000.0>, fillcolor="#fcf2ea"] ;
530 -> 532 ;
533 [label=<YearBuilt &le; 1944.5<br/>squared_error = 250000.0<br/>samples = 2<br/>value = 118500.0>, fillcolor="#fcf0e8"] ;
529 -> 533 ;
534 [label=<squared_error = 0.0<br/>samples = 1<br/>value = 118000.0>, fillcolor="#fcf0e8"] ;
533 -> 534 ;
535 [label=<squared_error = 0.0<br/>samples = 1<br/>value = 119000.0>, fillcolor="#fcf0e8"] ;
533 -> 535 ;
536 [label=<YearBuilt &le; 1949.0<br/>squared_error = 146906805.556<br/>samples = 3<br/>value = 136108.333>, fillcolor="#fbede3"] ;
524 -> 536 ;
537 [label=<squared_error = 0.0<br/>samples = 1<br/>value = 119200.0>, fillcolor="#fcf0e7"] ;
536 -> 537 ;
538 [label=<TotalBsmtSF &le; 1095.5<br/>squared_error = 5941406.25<br/>samples = 2<br/>value = 144562.5>, fillcolor="#fbece0"] ;
536 -> 538 ;
539 [label=<squared_error = 0.0<br/>samples = 1<br/>value = 142125.0>, fillcolor="#fbece1"] ;
538 -> 539 ;
540 [label=<squared_error = 0.0<br/>samples = 1<br/>value = 147000.0>, fillcolor="#fbebe0"] ;
538 -> 540 ;
541 [label=<OverallQual &le; 4.5<br/>squared_error = 85383085.938<br/>samples = 32<br/>value = 134256.25>, fillcolor="#fbede3"] ;
523 -> 541 ;
542 [label=<TotalBsmtSF &le; 1078.0<br/>squared_error = 199388888.889<br/>samples = 3<br/>value = 122166.667>, fillcolor="#fcf0e7"] ;
541 -> 542 ;
543 [label=<TotalBsmtSF &le; 1042.5<br/>squared_error = 33062500.0<br/>samples = 2<br/>value = 112750.0>, fillcolor="#fcf1e9"] ;
542 -> 543 ;
544 [label=<squared_error = 0.0<br/>samples = 1<br/>value = 118500.0>, fillcolor="#fcf0e8"] ;
543 -> 544 ;
545 [label=<squared_error = 0.0<br/>samples = 1<br/>value = 107000.0>, fillcolor="#fcf2eb"] ;
543 -> 545 ;
546 [label=<squared_error = 0.0<br/>samples = 1<br/>value = 141000.0>, fillcolor="#fbece1"] ;
542 -> 546 ;
547 [label=<GrLivArea &le; 1119.0<br/>squared_error = 56905469.679<br/>samples = 29<br/>value = 135506.897>, fillcolor="#fbede3"] ;
541 -> 547 ;
548 [label=<GrLivArea &le; 1051.0<br/>squared_error = 52652576.0<br/>samples = 25<br/>value = 136768.0>, fillcolor="#fbede3"] ;
547 -> 548 ;
549 [label=<FullBath &le; 1.5<br/>squared_error = 40756388.889<br/>samples = 12<br/>value = 132916.667>, fillcolor="#fbeee4"] ;
548 -> 549 ;
550 [label=<YearBuilt &le; 1964.0<br/>squared_error = 15856528.926<br/>samples = 11<br/>value = 131372.727>, fillcolor="#fbeee4"] ;
549 -> 550 ;
551 [label=<YearBuilt &le; 1955.0<br/>squared_error = 15124843.75<br/>samples = 8<br/>value = 132637.5>, fillcolor="#fbeee4"] ;
550 -> 551 ;
552 [label=<squared_error = 0.0<br/>samples = 1<br/>value = 137000.0>, fillcolor="#fbede3"] ;
551 -> 552 ;
553 [label=<YearBuilt &le; 1960.0<br/>squared_error = 14178367.347<br/>samples = 7<br/>value = 132014.286>, fillcolor="#fbeee4"] ;
551 -> 553 ;
554 [label=<1stFlrSF &le; 1040.5<br/>squared_error = 17261875.0<br/>samples = 4<br/>value = 130525.0>, fillcolor="#fbeee4"] ;
553 -> 554 ;
555 [label=<squared_error = 0.0<br/>samples = 1<br/>value = 133700.0>, fillcolor="#fbede3"] ;
554 -> 555 ;
556 [label=<GrLivArea &le; 1044.5<br/>squared_error = 18535555.556<br/>samples = 3<br/>value = 129466.667>, fillcolor="#fceee5"] ;
554 -> 556 ;
557 [label=<squared_error = 0.0<br/>samples = 1<br/>value = 124500.0>, fillcolor="#fcefe6"] ;
556 -> 557 ;
558 [label=<TotRmsAbvGrd &le; 5.5<br/>squared_error = 9302500.0<br/>samples = 2<br/>value = 131950.0>, fillcolor="#fbeee4"] ;
556 -> 558 ;
559 [label=<squared_error = 0.0<br/>samples = 1<br/>value = 128900.0>, fillcolor="#fceee5"] ;
558 -> 559 ;
560 [label=<squared_error = 0.0<br/>samples = 1<br/>value = 135000.0>, fillcolor="#fbede3"] ;
558 -> 560 ;
561 [label=<GrLivArea &le; 1045.0<br/>squared_error = 3166666.667<br/>samples = 3<br/>value = 134000.0>, fillcolor="#fbede3"] ;
553 -> 561 ;
562 [label=<GrLivArea &le; 1019.5<br/>squared_error = 62500.0<br/>samples = 2<br/>value = 132750.0>, fillcolor="#fbeee4"] ;
561 -> 562 ;
563 [label=<squared_error = 0.0<br/>samples = 1<br/>value = 132500.0>, fillcolor="#fbeee4"] ;
562 -> 563 ;
564 [label=<squared_error = 0.0<br/>samples = 1<br/>value = 133000.0>, fillcolor="#fbeee4"] ;
562 -> 564 ;
565 [label=<squared_error = 0.0<br/>samples = 1<br/>value = 136500.0>, fillcolor="#fbede3"] ;
561 -> 565 ;
566 [label=<YearBuilt &le; 1981.5<br/>squared_error = 2166666.667<br/>samples = 3<br/>value = 128000.0>, fillcolor="#fceee5"] ;
550 -> 566 ;
567 [label=<GrLivArea &le; 1005.5<br/>squared_error = 250000.0<br/>samples = 2<br/>value = 129000.0>, fillcolor="#fceee5"] ;
566 -> 567 ;
568 [label=<squared_error = 0.0<br/>samples = 1<br/>value = 128500.0>, fillcolor="#fceee5"] ;
567 -> 568 ;
569 [label=<squared_error = 0.0<br/>samples = 1<br/>value = 129500.0>, fillcolor="#fceee5"] ;
567 -> 569 ;
570 [label=<squared_error = 0.0<br/>samples = 1<br/>value = 126000.0>, fillcolor="#fcefe6"] ;
566 -> 570 ;
571 [label=<squared_error = 0.0<br/>samples = 1<br/>value = 149900.0>, fillcolor="#fbebdf"] ;
549 -> 571 ;
572 [label=<YearBuilt &le; 1958.5<br/>squared_error = 37303313.609<br/>samples = 13<br/>value = 140323.077>, fillcolor="#fbece2"] ;
548 -> 572 ;
573 [label=<YearBuilt &le; 1956.0<br/>squared_error = 18266666.667<br/>samples = 6<br/>value = 136400.0>, fillcolor="#fbede3"] ;
572 -> 573 ;
574 [label=<GrLivArea &le; 1059.5<br/>squared_error = 22035555.556<br/>samples = 3<br/>value = 134133.333>, fillcolor="#fbede3"] ;
573 -> 574 ;
575 [label=<squared_error = 0.0<br/>samples = 1<br/>value = 139400.0>, fillcolor="#fbece2"] ;
574 -> 575 ;
576 [label=<GrLivArea &le; 1080.5<br/>squared_error = 12250000.0<br/>samples = 2<br/>value = 131500.0>, fillcolor="#fbeee4"] ;
574 -> 576 ;
577 [label=<squared_error = 0.0<br/>samples = 1<br/>value = 128000.0>, fillcolor="#fceee5"] ;
576 -> 577 ;
578 [label=<squared_error = 0.0<br/>samples = 1<br/>value = 135000.0>, fillcolor="#fbede3"] ;
576 -> 578 ;
579 [label=<OverallQual &le; 5.5<br/>squared_error = 4222222.222<br/>samples = 3<br/>value = 138666.667>, fillcolor="#fbede2"] ;
573 -> 579 ;
580 [label=<GrLivArea &le; 1074.0<br/>squared_error = 1000000.0<br/>samples = 2<br/>value = 140000.0>, fillcolor="#fbece2"] ;
579 -> 580 ;
581 [label=<squared_error = 0.0<br/>samples = 1<br/>value = 139000.0>, fillcolor="#fbede2"] ;
580 -> 581 ;
582 [label=<squared_error = 0.0<br/>samples = 1<br/>value = 141000.0>, fillcolor="#fbece1"] ;
580 -> 582 ;
583 [label=<squared_error = 0.0<br/>samples = 1<br/>value = 136000.0>, fillcolor="#fbede3"] ;
579 -> 583 ;
584 [label=<GrLivArea &le; 1052.5<br/>squared_error = 29121224.49<br/>samples = 7<br/>value = 143685.714>, fillcolor="#fbece1"] ;
572 -> 584 ;
585 [label=<squared_error = 0.0<br/>samples = 1<br/>value = 138500.0>, fillcolor="#fbede2"] ;
584 -> 585 ;
586 [label=<1stFlrSF &le; 1076.0<br/>squared_error = 28745833.333<br/>samples = 6<br/>value = 144550.0>, fillcolor="#fbece0"] ;
584 -> 586 ;
587 [label=<1stFlrSF &le; 1058.0<br/>squared_error = 25388888.889<br/>samples = 3<br/>value = 147166.667>, fillcolor="#fbebe0"] ;
586 -> 587 ;
588 [label=<GrLivArea &le; 1054.5<br/>squared_error = 3062500.0<br/>samples = 2<br/>value = 143750.0>, fillcolor="#fbece1"] ;
587 -> 588 ;
589 [label=<squared_error = 0.0<br/>samples = 1<br/>value = 145500.0>, fillcolor="#fbebe0"] ;
588 -> 589 ;
590 [label=<squared_error = 0.0<br/>samples = 1<br/>value = 142000.0>, fillcolor="#fbece1"] ;
588 -> 590 ;
591 [label=<squared_error = 0.0<br/>samples = 1<br/>value = 154000.0>, fillcolor="#fbeade"] ;
587 -> 591 ;
592 [label=<TotalBsmtSF &le; 1119.5<br/>squared_error = 18408888.889<br/>samples = 3<br/>value = 141933.333>, fillcolor="#fbece1"] ;
586 -> 592 ;
593 [label=<YearBuilt &le; 1965.5<br/>squared_error = 10000.0<br/>samples = 2<br/>value = 138900.0>, fillcolor="#fbede2"] ;
592 -> 593 ;
594 [label=<squared_error = 0.0<br/>samples = 1<br/>value = 139000.0>, fillcolor="#fbede2"] ;
593 -> 594 ;
595 [label=<squared_error = 0.0<br/>samples = 1<br/>value = 138800.0>, fillcolor="#fbede2"] ;
593 -> 595 ;
596 [label=<squared_error = 0.0<br/>samples = 1<br/>value = 148000.0>, fillcolor="#fbebdf"] ;
592 -> 596 ;
597 [label=<YearBuilt &le; 1961.0<br/>squared_error = 11421875.0<br/>samples = 4<br/>value = 127625.0>, fillcolor="#fcefe5"] ;
547 -> 597 ;
598 [label=<YearBuilt &le; 1957.5<br/>squared_error = 3062500.0<br/>samples = 2<br/>value = 130750.0>, fillcolor="#fbeee4"] ;
597 -> 598 ;
599 [label=<squared_error = 0.0<br/>samples = 1<br/>value = 129000.0>, fillcolor="#fceee5"] ;
598 -> 599 ;
600 [label=<squared_error = 0.0<br/>samples = 1<br/>value = 132500.0>, fillcolor="#fbeee4"] ;
598 -> 600 ;
601 [label=<TotalBsmtSF &le; 1092.5<br/>squared_error = 250000.0<br/>samples = 2<br/>value = 124500.0>, fillcolor="#fcefe6"] ;
597 -> 601 ;
602 [label=<squared_error = 0.0<br/>samples = 1<br/>value = 125000.0>, fillcolor="#fcefe6"] ;
601 -> 602 ;
603 [label=<squared_error = 0.0<br/>samples = 1<br/>value = 124000.0>, fillcolor="#fcefe6"] ;
601 -> 603 ;
604 [label=<YearBuilt &le; 1951.5<br/>squared_error = 169485793.419<br/>samples = 49<br/>value = 145436.735>, fillcolor="#fbebe0"] ;
510 -> 604 ;
605 [label=<OverallQual &le; 5.5<br/>squared_error = 51166666.667<br/>samples = 3<br/>value = 119500.0>, fillcolor="#fcf0e7"] ;
604 -> 605 ;
606 [label=<GrLivArea &le; 1098.5<br/>squared_error = 16000000.0<br/>samples = 2<br/>value = 124000.0>, fillcolor="#fcefe6"] ;
605 -> 606 ;
607 [label=<squared_error = 0.0<br/>samples = 1<br/>value = 128000.0>, fillcolor="#fceee5"] ;
606 -> 607 ;
608 [label=<squared_error = 0.0<br/>samples = 1<br/>value = 120000.0>, fillcolor="#fcf0e7"] ;
606 -> 608 ;
609 [label=<squared_error = 0.0<br/>samples = 1<br/>value = 110500.0>, fillcolor="#fcf2ea"] ;
605 -> 609 ;
610 [label=<TotalBsmtSF &le; 1088.0<br/>squared_error = 130468331.758<br/>samples = 46<br/>value = 147128.261>, fillcolor="#fbebe0"] ;
604 -> 610 ;
611 [label=<YearBuilt &le; 1964.0<br/>squared_error = 114609247.222<br/>samples = 30<br/>value = 144131.667>, fillcolor="#fbece1"] ;
610 -> 611 ;
612 [label=<YearBuilt &le; 1959.0<br/>squared_error = 64773163.265<br/>samples = 7<br/>value = 135307.143>, fillcolor="#fbede3"] ;
611 -> 612 ;
613 [label=<GrLivArea &le; 1069.5<br/>squared_error = 6502500.0<br/>samples = 2<br/>value = 147450.0>, fillcolor="#fbebe0"] ;
612 -> 613 ;
614 [label=<squared_error = 0.0<br/>samples = 1<br/>value = 150000.0>, fillcolor="#fbebdf"] ;
613 -> 614 ;
615 [label=<squared_error = 0.0<br/>samples = 1<br/>value = 144900.0>, fillcolor="#fbebe0"] ;
613 -> 615 ;
616 [label=<GrLivArea &le; 1061.0<br/>squared_error = 5510000.0<br/>samples = 5<br/>value = 130450.0>, fillcolor="#fceee4"] ;
612 -> 616 ;
617 [label=<GrLivArea &le; 1005.0<br/>squared_error = 41666.667<br/>samples = 3<br/>value = 132250.0>, fillcolor="#fbeee4"] ;
616 -> 617 ;
618 [label=<squared_error = 0.0<br/>samples = 1<br/>value = 132500.0>, fillcolor="#fbeee4"] ;
617 -> 618 ;
619 [label=<TotalBsmtSF &le; 1060.5<br/>squared_error = 15625.0<br/>samples = 2<br/>value = 132125.0>, fillcolor="#fbeee4"] ;
617 -> 619 ;
620 [label=<squared_error = 0.0<br/>samples = 1<br/>value = 132000.0>, fillcolor="#fbeee4"] ;
619 -> 620 ;
621 [label=<squared_error = 0.0<br/>samples = 1<br/>value = 132250.0>, fillcolor="#fbeee4"] ;
619 -> 621 ;
622 [label=<GrLivArea &le; 1092.5<br/>squared_error = 1562500.0<br/>samples = 2<br/>value = 127750.0>, fillcolor="#fcefe5"] ;
616 -> 622 ;
623 [label=<squared_error = 0.0<br/>samples = 1<br/>value = 126500.0>, fillcolor="#fcefe5"] ;
622 -> 623 ;
624 [label=<squared_error = 0.0<br/>samples = 1<br/>value = 129000.0>, fillcolor="#fceee5"] ;
622 -> 624 ;
625 [label=<GarageCars &le; 2.5<br/>squared_error = 98863393.195<br/>samples = 23<br/>value = 146817.391>, fillcolor="#fbebe0"] ;
611 -> 625 ;
626 [label=<GrLivArea &le; 1039.5<br/>squared_error = 78037851.24<br/>samples = 22<br/>value = 145768.182>, fillcolor="#fbebe0"] ;
625 -> 626 ;
627 [label=<TotalBsmtSF &le; 1035.5<br/>squared_error = 68415625.0<br/>samples = 10<br/>value = 140625.0>, fillcolor="#fbece2"] ;
626 -> 627 ;
628 [label=<TotalBsmtSF &le; 980.5<br/>squared_error = 47795898.438<br/>samples = 8<br/>value = 143343.75>, fillcolor="#fbece1"] ;
627 -> 628 ;
629 [label=<squared_error = 0.0<br/>samples = 2<br/>value = 135000.0>, fillcolor="#fbede3"] ;
628 -> 629 ;
630 [label=<YearBuilt &le; 1994.5<br/>squared_error = 32786458.333<br/>samples = 6<br/>value = 146125.0>, fillcolor="#fbebe0"] ;
628 -> 630 ;
631 [label=<GrLivArea &le; 1003.5<br/>squared_error = 15940000.0<br/>samples = 5<br/>value = 144150.0>, fillcolor="#fbece1"] ;
630 -> 631 ;
632 [label=<OverallQual &le; 5.5<br/>squared_error = 5375000.0<br/>samples = 3<br/>value = 141250.0>, fillcolor="#fbece1"] ;
631 -> 632 ;
633 [label=<squared_error = 0.0<br/>samples = 1<br/>value = 138000.0>, fillcolor="#fbede2"] ;
632 -> 633 ;
634 [label=<1stFlrSF &le; 992.0<br/>squared_error = 140625.0<br/>samples = 2<br/>value = 142875.0>, fillcolor="#fbece1"] ;
632 -> 634 ;
635 [label=<squared_error = 0.0<br/>samples = 1<br/>value = 143250.0>, fillcolor="#fbece1"] ;
634 -> 635 ;
636 [label=<squared_error = 0.0<br/>samples = 1<br/>value = 142500.0>, fillcolor="#fbece1"] ;
634 -> 636 ;
637 [label=<1stFlrSF &le; 1018.0<br/>squared_error = 250000.0<br/>samples = 2<br/>value = 148500.0>, fillcolor="#fbebdf"] ;
631 -> 637 ;
638 [label=<squared_error = 0.0<br/>samples = 1<br/>value = 149000.0>, fillcolor="#fbebdf"] ;
637 -> 638 ;
639 [label=<squared_error = 0.0<br/>samples = 1<br/>value = 148000.0>, fillcolor="#fbebdf"] ;
637 -> 639 ;
640 [label=<squared_error = 0.0<br/>samples = 1<br/>value = 156000.0>, fillcolor="#fbeadd"] ;
630 -> 640 ;
641 [label=<GrLivArea &le; 998.5<br/>squared_error = 3062500.0<br/>samples = 2<br/>value = 129750.0>, fillcolor="#fceee5"] ;
627 -> 641 ;
642 [label=<squared_error = 0.0<br/>samples = 1<br/>value = 128000.0>, fillcolor="#fceee5"] ;
641 -> 642 ;
643 [label=<squared_error = 0.0<br/>samples = 1<br/>value = 131500.0>, fillcolor="#fbeee4"] ;
641 -> 643 ;
644 [label=<TotRmsAbvGrd &le; 5.5<br/>squared_error = 45643107.639<br/>samples = 12<br/>value = 150054.167>, fillcolor="#fbebdf"] ;
626 -> 644 ;
645 [label=<GrLivArea &le; 1065.5<br/>squared_error = 40141875.0<br/>samples = 4<br/>value = 142825.0>, fillcolor="#fbece1"] ;
644 -> 645 ;
646 [label=<TotalBsmtSF &le; 1034.5<br/>squared_error = 3422500.0<br/>samples = 2<br/>value = 148650.0>, fillcolor="#fbebdf"] ;
645 -> 646 ;
647 [label=<squared_error = 0.0<br/>samples = 1<br/>value = 146800.0>, fillcolor="#fbebe0"] ;
646 -> 647 ;
648 [label=<squared_error = 0.0<br/>samples = 1<br/>value = 150500.0>, fillcolor="#fbeadf"] ;
646 -> 648 ;
649 [label=<1stFlrSF &le; 1074.5<br/>squared_error = 9000000.0<br/>samples = 2<br/>value = 137000.0>, fillcolor="#fbede3"] ;
645 -> 649 ;
650 [label=<squared_error = 0.0<br/>samples = 1<br/>value = 140000.0>, fillcolor="#fbece2"] ;
649 -> 650 ;
651 [label=<squared_error = 0.0<br/>samples = 1<br/>value = 134000.0>, fillcolor="#fbede3"] ;
649 -> 651 ;
652 [label=<YearBuilt &le; 1967.5<br/>squared_error = 9198085.938<br/>samples = 8<br/>value = 153668.75>, fillcolor="#fbeade"] ;
644 -> 652 ;
653 [label=<1stFlrSF &le; 1079.5<br/>squared_error = 3900625.0<br/>samples = 2<br/>value = 157975.0>, fillcolor="#fae9dd"] ;
652 -> 653 ;
654 [label=<squared_error = 0.0<br/>samples = 1<br/>value = 156000.0>, fillcolor="#fbeadd"] ;
653 -> 654 ;
655 [label=<squared_error = 0.0<br/>samples = 1<br/>value = 159950.0>, fillcolor="#fae9dc"] ;
653 -> 655 ;
656 [label=<TotalBsmtSF &le; 1025.0<br/>squared_error = 2722222.222<br/>samples = 6<br/>value = 152233.333>, fillcolor="#fbeade"] ;
652 -> 656 ;
657 [label=<squared_error = 0.0<br/>samples = 1<br/>value = 155000.0>, fillcolor="#fbeade"] ;
656 -> 657 ;
658 [label=<YearBuilt &le; 1973.0<br/>squared_error = 1429600.0<br/>samples = 5<br/>value = 151680.0>, fillcolor="#fbeade"] ;
656 -> 658 ;
659 [label=<GrLivArea &le; 1066.0<br/>squared_error = 302500.0<br/>samples = 2<br/>value = 150450.0>, fillcolor="#fbeadf"] ;
658 -> 659 ;
660 [label=<squared_error = 0.0<br/>samples = 1<br/>value = 151000.0>, fillcolor="#fbeadf"] ;
659 -> 660 ;
661 [label=<squared_error = 0.0<br/>samples = 1<br/>value = 149900.0>, fillcolor="#fbebdf"] ;
659 -> 661 ;
662 [label=<TotalBsmtSF &le; 1048.0<br/>squared_error = 500000.0<br/>samples = 3<br/>value = 152500.0>, fillcolor="#fbeade"] ;
658 -> 662 ;
663 [label=<squared_error = 0.0<br/>samples = 2<br/>value = 152000.0>, fillcolor="#fbeade"] ;
662 -> 663 ;
664 [label=<squared_error = 0.0<br/>samples = 1<br/>value = 153500.0>, fillcolor="#fbeade"] ;
662 -> 664 ;
665 [label=<squared_error = 0.0<br/>samples = 1<br/>value = 169900.0>, fillcolor="#fae7d9"] ;
625 -> 665 ;
666 [label=<GrLivArea &le; 1136.5<br/>squared_error = 111798583.984<br/>samples = 16<br/>value = 152746.875>, fillcolor="#fbeade"] ;
610 -> 666 ;
667 [label=<1stFlrSF &le; 1130.0<br/>squared_error = 79556213.018<br/>samples = 13<br/>value = 155961.538>, fillcolor="#fbeadd"] ;
666 -> 667 ;
668 [label=<OverallQual &le; 4.5<br/>squared_error = 49935763.889<br/>samples = 12<br/>value = 154291.667>, fillcolor="#fbeade"] ;
667 -> 668 ;
669 [label=<squared_error = 0.0<br/>samples = 1<br/>value = 140000.0>, fillcolor="#fbece2"] ;
668 -> 669 ;
670 [label=<1stFlrSF &le; 1103.5<br/>squared_error = 34219008.264<br/>samples = 11<br/>value = 155590.909>, fillcolor="#fbeadd"] ;
668 -> 670 ;
671 [label=<TotRmsAbvGrd &le; 5.5<br/>squared_error = 30750000.0<br/>samples = 4<br/>value = 150500.0>, fillcolor="#fbeadf"] ;
670 -> 671 ;
672 [label=<OverallQual &le; 5.5<br/>squared_error = 1000000.0<br/>samples = 2<br/>value = 156000.0>, fillcolor="#fbeadd"] ;
671 -> 672 ;
673 [label=<squared_error = 0.0<br/>samples = 1<br/>value = 157000.0>, fillcolor="#fbe9dd"] ;
672 -> 673 ;
674 [label=<squared_error = 0.0<br/>samples = 1<br/>value = 155000.0>, fillcolor="#fbeade"] ;
672 -> 674 ;
675 [label=<squared_error = 0.0<br/>samples = 2<br/>value = 145000.0>, fillcolor="#fbebe0"] ;
671 -> 675 ;
676 [label=<1stFlrSF &le; 1112.0<br/>squared_error = 12928571.429<br/>samples = 7<br/>value = 158500.0>, fillcolor="#fae9dd"] ;
670 -> 676 ;
677 [label=<squared_error = 0.0<br/>samples = 1<br/>value = 165500.0>, fillcolor="#fae8db"] ;
676 -> 677 ;
678 [label=<TotalBsmtSF &le; 1125.5<br/>squared_error = 5555555.556<br/>samples = 6<br/>value = 157333.333>, fillcolor="#fbe9dd"] ;
676 -> 678 ;
679 [label=<YearBuilt &le; 1962.5<br/>squared_error = 4960000.0<br/>samples = 5<br/>value = 156800.0>, fillcolor="#fbe9dd"] ;
678 -> 679 ;
680 [label=<squared_error = 0.0<br/>samples = 1<br/>value = 160000.0>, fillcolor="#fae9dc"] ;
679 -> 680 ;
681 [label=<YearBuilt &le; 2003.5<br/>squared_error = 3000000.0<br/>samples = 4<br/>value = 156000.0>, fillcolor="#fbeadd"] ;
679 -> 681 ;
682 [label=<squared_error = 0.0<br/>samples = 2<br/>value = 155000.0>, fillcolor="#fbeade"] ;
681 -> 682 ;
683 [label=<TotalBsmtSF &le; 1119.5<br/>squared_error = 4000000.0<br/>samples = 2<br/>value = 157000.0>, fillcolor="#fbe9dd"] ;
681 -> 683 ;
684 [label=<squared_error = 0.0<br/>samples = 1<br/>value = 159000.0>, fillcolor="#fae9dc"] ;
683 -> 684 ;
685 [label=<squared_error = 0.0<br/>samples = 1<br/>value = 155000.0>, fillcolor="#fbeade"] ;
683 -> 685 ;
686 [label=<squared_error = 0.0<br/>samples = 1<br/>value = 160000.0>, fillcolor="#fae9dc"] ;
678 -> 686 ;
687 [label=<squared_error = 0.0<br/>samples = 1<br/>value = 176000.0>, fillcolor="#fae6d8"] ;
667 -> 687 ;
688 [label=<YearBuilt &le; 1990.5<br/>squared_error = 12683888.889<br/>samples = 3<br/>value = 138816.667>, fillcolor="#fbede2"] ;
666 -> 688 ;
689 [label=<TotalBsmtSF &le; 1143.0<br/>squared_error = 8850625.0<br/>samples = 2<br/>value = 136975.0>, fillcolor="#fbede3"] ;
688 -> 689 ;
690 [label=<squared_error = 0.0<br/>samples = 1<br/>value = 134000.0>, fillcolor="#fbede3"] ;
689 -> 690 ;
691 [label=<squared_error = 0.0<br/>samples = 1<br/>value = 139950.0>, fillcolor="#fbece2"] ;
689 -> 691 ;
692 [label=<squared_error = 0.0<br/>samples = 1<br/>value = 142500.0>, fillcolor="#fbece1"] ;
688 -> 692 ;
693 [label=<OverallQual &le; 5.5<br/>squared_error = 597592130.029<br/>samples = 75<br/>value = 156330.587>, fillcolor="#fbe9dd"] ;
509 -> 693 ;
694 [label=<YearBuilt &le; 1950.5<br/>squared_error = 539461732.978<br/>samples = 36<br/>value = 143801.722>, fillcolor="#fbece1"] ;
693 -> 694 ;
695 [label=<GarageCars &le; 1.5<br/>squared_error = 105668888.889<br/>samples = 3<br/>value = 111633.333>, fillcolor="#fcf1ea"] ;
694 -> 695 ;
696 [label=<squared_error = 0.0<br/>samples = 1<br/>value = 125000.0>, fillcolor="#fcefe6"] ;
695 -> 696 ;
697 [label=<TotalBsmtSF &le; 1170.5<br/>squared_error = 24502500.0<br/>samples = 2<br/>value = 104950.0>, fillcolor="#fcf3eb"] ;
695 -> 697 ;
698 [label=<squared_error = 0.0<br/>samples = 1<br/>value = 100000.0>, fillcolor="#fdf3ed"] ;
697 -> 698 ;
699 [label=<squared_error = 0.0<br/>samples = 1<br/>value = 109900.0>, fillcolor="#fcf2ea"] ;
697 -> 699 ;
700 [label=<YearBuilt &le; 1958.5<br/>squared_error = 476272132.652<br/>samples = 33<br/>value = 146726.121>, fillcolor="#fbebe0"] ;
694 -> 700 ;
701 [label=<GrLivArea &le; 1286.5<br/>squared_error = 716807427.686<br/>samples = 11<br/>value = 137138.636>, fillcolor="#fbede2"] ;
700 -> 701 ;
702 [label=<1stFlrSF &le; 1272.0<br/>squared_error = 950896367.188<br/>samples = 4<br/>value = 113156.25>, fillcolor="#fcf1e9"] ;
701 -> 702 ;
703 [label=<GrLivArea &le; 1199.5<br/>squared_error = 12045416.667<br/>samples = 3<br/>value = 130875.0>, fillcolor="#fbeee4"] ;
702 -> 703 ;
704 [label=<squared_error = 0.0<br/>samples = 1<br/>value = 126175.0>, fillcolor="#fcefe6"] ;
703 -> 704 ;
705 [label=<GrLivArea &le; 1252.0<br/>squared_error = 1500625.0<br/>samples = 2<br/>value = 133225.0>, fillcolor="#fbeee4"] ;
703 -> 705 ;
706 [label=<squared_error = 0.0<br/>samples = 1<br/>value = 134450.0>, fillcolor="#fbede3"] ;
705 -> 706 ;
707 [label=<squared_error = 0.0<br/>samples = 1<br/>value = 132000.0>, fillcolor="#fbeee4"] ;
705 -> 707 ;
708 [label=<squared_error = 0.0<br/>samples = 1<br/>value = 60000.0>, fillcolor="#fefbf8"] ;
702 -> 708 ;
709 [label=<YearBuilt &le; 1955.5<br/>squared_error = 66576734.694<br/>samples = 7<br/>value = 150842.857>, fillcolor="#fbeadf"] ;
701 -> 709 ;
710 [label=<TotRmsAbvGrd &le; 5.5<br/>squared_error = 24446666.667<br/>samples = 3<br/>value = 158300.0>, fillcolor="#fae9dd"] ;
709 -> 710 ;
711 [label=<GarageCars &le; 1.5<br/>squared_error = 4000000.0<br/>samples = 2<br/>value = 155000.0>, fillcolor="#fbeade"] ;
710 -> 711 ;
712 [label=<squared_error = 0.0<br/>samples = 1<br/>value = 157000.0>, fillcolor="#fbe9dd"] ;
711 -> 712 ;
713 [label=<squared_error = 0.0<br/>samples = 1<br/>value = 153000.0>, fillcolor="#fbeade"] ;
711 -> 713 ;
714 [label=<squared_error = 0.0<br/>samples = 1<br/>value = 164900.0>, fillcolor="#fae8db"] ;
710 -> 714 ;
715 [label=<TotalBsmtSF &le; 1008.0<br/>squared_error = 25187500.0<br/>samples = 4<br/>value = 145250.0>, fillcolor="#fbebe0"] ;
709 -> 715 ;
716 [label=<squared_error = 0.0<br/>samples = 1<br/>value = 153000.0>, fillcolor="#fbeade"] ;
715 -> 716 ;
717 [label=<TotalBsmtSF &le; 1171.5<br/>squared_error = 6888888.889<br/>samples = 3<br/>value = 142666.667>, fillcolor="#fbece1"] ;
715 -> 717 ;
718 [label=<GrLivArea &le; 1341.5<br/>squared_error = 6250000.0<br/>samples = 2<br/>value = 141500.0>, fillcolor="#fbece1"] ;
717 -> 718 ;
719 [label=<squared_error = 0.0<br/>samples = 1<br/>value = 139000.0>, fillcolor="#fbede2"] ;
718 -> 719 ;
720 [label=<squared_error = 0.0<br/>samples = 1<br/>value = 144000.0>, fillcolor="#fbece1"] ;
718 -> 720 ;
721 [label=<squared_error = 0.0<br/>samples = 1<br/>value = 145000.0>, fillcolor="#fbebe0"] ;
717 -> 721 ;
722 [label=<1stFlrSF &le; 1153.0<br/>squared_error = 287064585.845<br/>samples = 22<br/>value = 151519.864>, fillcolor="#fbeade"] ;
700 -> 722 ;
723 [label=<squared_error = 0.0<br/>samples = 1<br/>value = 180500.0>, fillcolor="#fae5d6"] ;
722 -> 723 ;
724 [label=<FullBath &le; 2.5<br/>squared_error = 258837133.742<br/>samples = 21<br/>value = 150139.857>, fillcolor="#fbebdf"] ;
722 -> 724 ;
725 [label=<GrLivArea &le; 1260.0<br/>squared_error = 228051328.528<br/>samples = 20<br/>value = 148696.85>, fillcolor="#fbebdf"] ;
724 -> 725 ;
726 [label=<1stFlrSF &le; 1231.5<br/>squared_error = 219467472.947<br/>samples = 13<br/>value = 143129.769>, fillcolor="#fbece1"] ;
725 -> 726 ;
727 [label=<YearBuilt &le; 1972.5<br/>squared_error = 64041885.868<br/>samples = 11<br/>value = 146780.636>, fillcolor="#fbebe0"] ;
726 -> 727 ;
728 [label=<TotalBsmtSF &le; 1107.5<br/>squared_error = 58418888.889<br/>samples = 9<br/>value = 144916.667>, fillcolor="#fbebe0"] ;
727 -> 728 ;
729 [label=<squared_error = 0.0<br/>samples = 1<br/>value = 132500.0>, fillcolor="#fbeee4"] ;
728 -> 729 ;
730 [label=<YearBuilt &le; 1966.5<br/>squared_error = 44040585.938<br/>samples = 8<br/>value = 146468.75>, fillcolor="#fbebe0"] ;
728 -> 730 ;
731 [label=<GarageCars &le; 1.5<br/>squared_error = 39012013.889<br/>samples = 6<br/>value = 148541.667>, fillcolor="#fbebdf"] ;
730 -> 731 ;
732 [label=<GrLivArea &le; 1208.0<br/>squared_error = 18275625.0<br/>samples = 2<br/>value = 153625.0>, fillcolor="#fbeade"] ;
731 -> 732 ;
733 [label=<squared_error = 0.0<br/>samples = 1<br/>value = 157900.0>, fillcolor="#fae9dd"] ;
732 -> 733 ;
734 [label=<squared_error = 0.0<br/>samples = 1<br/>value = 149350.0>, fillcolor="#fbebdf"] ;
732 -> 734 ;
735 [label=<1stFlrSF &le; 1171.5<br/>squared_error = 30000000.0<br/>samples = 4<br/>value = 146000.0>, fillcolor="#fbebe0"] ;
731 -> 735 ;
736 [label=<YearBuilt &le; 1963.5<br/>squared_error = 9000000.0<br/>samples = 2<br/>value = 151000.0>, fillcolor="#fbeadf"] ;
735 -> 736 ;
737 [label=<squared_error = 0.0<br/>samples = 1<br/>value = 148000.0>, fillcolor="#fbebdf"] ;
736 -> 737 ;
738 [label=<squared_error = 0.0<br/>samples = 1<br/>value = 154000.0>, fillcolor="#fbeade"] ;
736 -> 738 ;
739 [label=<TotalBsmtSF &le; 1201.0<br/>squared_error = 1000000.0<br/>samples = 2<br/>value = 141000.0>, fillcolor="#fbece1"] ;
735 -> 739 ;
740 [label=<squared_error = 0.0<br/>samples = 1<br/>value = 142000.0>, fillcolor="#fbece1"] ;
739 -> 740 ;
741 [label=<squared_error = 0.0<br/>samples = 1<br/>value = 140000.0>, fillcolor="#fbece2"] ;
739 -> 741 ;
742 [label=<OverallQual &le; 4.5<br/>squared_error = 7562500.0<br/>samples = 2<br/>value = 140250.0>, fillcolor="#fbece2"] ;
730 -> 742 ;
743 [label=<squared_error = 0.0<br/>samples = 1<br/>value = 137500.0>, fillcolor="#fbede2"] ;
742 -> 743 ;
744 [label=<squared_error = 0.0<br/>samples = 1<br/>value = 143000.0>, fillcolor="#fbece1"] ;
742 -> 744 ;
745 [label=<TotRmsAbvGrd &le; 5.5<br/>squared_error = 3354392.25<br/>samples = 2<br/>value = 155168.5>, fillcolor="#fbeadd"] ;
727 -> 745 ;
746 [label=<squared_error = 0.0<br/>samples = 1<br/>value = 157000.0>, fillcolor="#fbe9dd"] ;
745 -> 746 ;
747 [label=<squared_error = 0.0<br/>samples = 1<br/>value = 153337.0>, fillcolor="#fbeade"] ;
745 -> 747 ;
748 [label=<YearBuilt &le; 1963.0<br/>squared_error = 597802500.0<br/>samples = 2<br/>value = 123050.0>, fillcolor="#fcefe6"] ;
726 -> 748 ;
749 [label=<squared_error = 0.0<br/>samples = 1<br/>value = 98600.0>, fillcolor="#fdf4ed"] ;
748 -> 749 ;
750 [label=<squared_error = 0.0<br/>samples = 1<br/>value = 147500.0>, fillcolor="#fbebe0"] ;
748 -> 750 ;
751 [label=<YearBuilt &le; 1971.5<br/>squared_error = 79543367.347<br/>samples = 7<br/>value = 159035.714>, fillcolor="#fae9dc"] ;
725 -> 751 ;
752 [label=<GrLivArea &le; 1327.5<br/>squared_error = 45869791.667<br/>samples = 6<br/>value = 161625.0>, fillcolor="#fae9dc"] ;
751 -> 752 ;
753 [label=<GrLivArea &le; 1323.5<br/>squared_error = 38210000.0<br/>samples = 5<br/>value = 159950.0>, fillcolor="#fae9dc"] ;
752 -> 753 ;
754 [label=<TotalBsmtSF &le; 1268.5<br/>squared_error = 21312500.0<br/>samples = 4<br/>value = 162250.0>, fillcolor="#fae8db"] ;
753 -> 754 ;
755 [label=<GrLivArea &le; 1275.5<br/>squared_error = 5055555.556<br/>samples = 3<br/>value = 164666.667>, fillcolor="#fae8db"] ;
754 -> 755 ;
756 [label=<squared_error = 0.0<br/>samples = 1<br/>value = 167500.0>, fillcolor="#fae7da"] ;
755 -> 756 ;
757 [label=<YearBuilt &le; 1962.5<br/>squared_error = 1562500.0<br/>samples = 2<br/>value = 163250.0>, fillcolor="#fae8db"] ;
755 -> 757 ;
758 [label=<squared_error = 0.0<br/>samples = 1<br/>value = 162000.0>, fillcolor="#fae8dc"] ;
757 -> 758 ;
759 [label=<squared_error = 0.0<br/>samples = 1<br/>value = 164500.0>, fillcolor="#fae8db"] ;
757 -> 759 ;
760 [label=<squared_error = 0.0<br/>samples = 1<br/>value = 155000.0>, fillcolor="#fbeade"] ;
754 -> 760 ;
761 [label=<squared_error = 0.0<br/>samples = 1<br/>value = 150750.0>, fillcolor="#fbeadf"] ;
753 -> 761 ;
762 [label=<squared_error = 0.0<br/>samples = 1<br/>value = 170000.0>, fillcolor="#fae7d9"] ;
752 -> 762 ;
763 [label=<squared_error = 0.0<br/>samples = 1<br/>value = 143500.0>, fillcolor="#fbece1"] ;
751 -> 763 ;
764 [label=<squared_error = 0.0<br/>samples = 1<br/>value = 179000.0>, fillcolor="#fae5d7"] ;
724 -> 764 ;
765 [label=<TotRmsAbvGrd &le; 4.5<br/>squared_error = 372601648.726<br/>samples = 39<br/>value = 167895.692>, fillcolor="#fae7da"] ;
693 -> 765 ;
766 [label=<FullBath &le; 1.5<br/>squared_error = 178222500.0<br/>samples = 2<br/>value = 221650.0>, fillcolor="#f8decb"] ;
765 -> 766 ;
767 [label=<squared_error = 0.0<br/>samples = 1<br/>value = 235000.0>, fillcolor="#f8dbc7"] ;
766 -> 767 ;
768 [label=<squared_error = 0.0<br/>samples = 1<br/>value = 208300.0>, fillcolor="#f9e0cf"] ;
766 -> 768 ;
769 [label=<YearBuilt &le; 1972.5<br/>squared_error = 218475323.348<br/>samples = 37<br/>value = 164990.054>, fillcolor="#fae8db"] ;
765 -> 769 ;
770 [label=<YearBuilt &le; 1936.5<br/>squared_error = 163895432.099<br/>samples = 18<br/>value = 155188.889>, fillcolor="#fbeadd"] ;
769 -> 770 ;
771 [label=<squared_error = 0.0<br/>samples = 1<br/>value = 125000.0>, fillcolor="#fcefe6"] ;
770 -> 771 ;
772 [label=<TotalBsmtSF &le; 1160.5<br/>squared_error = 116772871.972<br/>samples = 17<br/>value = 156964.706>, fillcolor="#fbe9dd"] ;
770 -> 772 ;
773 [label=<GrLivArea &le; 1340.5<br/>squared_error = 70555000.0<br/>samples = 4<br/>value = 167600.0>, fillcolor="#fae7da"] ;
772 -> 773 ;
774 [label=<YearBuilt &le; 1965.5<br/>squared_error = 54802222.222<br/>samples = 3<br/>value = 164466.667>, fillcolor="#fae8db"] ;
773 -> 774 ;
775 [label=<TotalBsmtSF &le; 1090.0<br/>squared_error = 562500.0<br/>samples = 2<br/>value = 159250.0>, fillcolor="#fae9dc"] ;
774 -> 775 ;
776 [label=<squared_error = 0.0<br/>samples = 1<br/>value = 160000.0>, fillcolor="#fae9dc"] ;
775 -> 776 ;
777 [label=<squared_error = 0.0<br/>samples = 1<br/>value = 158500.0>, fillcolor="#fae9dd"] ;
775 -> 777 ;
778 [label=<squared_error = 0.0<br/>samples = 1<br/>value = 174900.0>, fillcolor="#fae6d8"] ;
774 -> 778 ;
779 [label=<squared_error = 0.0<br/>samples = 1<br/>value = 177000.0>, fillcolor="#fae6d7"] ;
773 -> 779 ;
780 [label=<GrLivArea &le; 1335.0<br/>squared_error = 85482248.521<br/>samples = 13<br/>value = 153692.308>, fillcolor="#fbeade"] ;
772 -> 780 ;
781 [label=<YearBuilt &le; 1956.5<br/>squared_error = 64250000.0<br/>samples = 10<br/>value = 150500.0>, fillcolor="#fbeadf"] ;
780 -> 781 ;
782 [label=<squared_error = 0.0<br/>samples = 1<br/>value = 139000.0>, fillcolor="#fbede2"] ;
781 -> 782 ;
783 [label=<GarageCars &le; 1.5<br/>squared_error = 55061728.395<br/>samples = 9<br/>value = 151777.778>, fillcolor="#fbeade"] ;
781 -> 783 ;
784 [label=<GrLivArea &le; 1247.5<br/>squared_error = 22240000.0<br/>samples = 5<br/>value = 154600.0>, fillcolor="#fbeade"] ;
783 -> 784 ;
785 [label=<YearBuilt &le; 1958.0<br/>squared_error = 1000000.0<br/>samples = 2<br/>value = 149000.0>, fillcolor="#fbebdf"] ;
784 -> 785 ;
786 [label=<squared_error = 0.0<br/>samples = 1<br/>value = 150000.0>, fillcolor="#fbebdf"] ;
785 -> 786 ;
787 [label=<squared_error = 0.0<br/>samples = 1<br/>value = 148000.0>, fillcolor="#fbebdf"] ;
785 -> 787 ;
788 [label=<1stFlrSF &le; 1252.0<br/>squared_error = 1555555.556<br/>samples = 3<br/>value = 158333.333>, fillcolor="#fae9dd"] ;
784 -> 788 ;
789 [label=<squared_error = 0.0<br/>samples = 1<br/>value = 160000.0>, fillcolor="#fae9dc"] ;
788 -> 789 ;
790 [label=<YearBuilt &le; 1962.0<br/>squared_error = 250000.0<br/>samples = 2<br/>value = 157500.0>, fillcolor="#fbe9dd"] ;
788 -> 790 ;
791 [label=<squared_error = 0.0<br/>samples = 1<br/>value = 157000.0>, fillcolor="#fbe9dd"] ;
790 -> 791 ;
792 [label=<squared_error = 0.0<br/>samples = 1<br/>value = 158000.0>, fillcolor="#fae9dd"] ;
790 -> 792 ;
